svm_type c_svc
kernel_type rbf
gamma 1e-09
nr_class 2
total_sv 1954
rho 0.807705
label 1 0
nr_sv 977 977
SV
9 1:23.18 2:27.272 3:426 4:721.25 5:0.004792988 
9 1:23.15 2:27.2675 3:429.5 4:714 5:0.004783441 
9 1:23.15 2:27.245 3:426 4:713.5 5:0.004779464 
9 1:23.15 2:27.2 3:426 4:708.25 5:0.004771509 
9 1:23.1 2:27.2 3:426 4:704.5 5:0.004756993 
9 1:23.1 2:27.2 3:419 4:701 5:0.004756993 
9 1:23.1 2:27.2 3:419 4:701.66667 5:0.004756993 
9 1:23.1 2:27.2 3:419 4:699 5:0.004756993 
9 1:23.1 2:27.2 3:419 4:689.33333 5:0.004756993 
9 1:23.075 2:27.175 3:419 4:688 5:0.004745351 
9 1:23.075 2:27.15 3:419 4:690.25 5:0.004740952 
9 1:23.1 2:27.1 3:419 4:691 5:0.004739371 
9 1:23.1 2:27.166667 3:419 4:683.5 5:0.004751119 
9 1:23.05 2:27.15 3:419 4:687.5 5:0.004733732 
9 1:23 2:27.125 3:419 4:686 5:0.004714942 
9 1:23 2:27.125 3:418.5 4:680.5 5:0.004714942 
9 1:20.7 2:22.39 3:356 4:457 5:0.003374666 
9 1:20.7225 2:22.5 3:419 4:470.75 5:0.003396065 
9 1:20.73 2:22.5 3:419 4:472 5:0.003397643 
9 1:20.7225 2:22.525 3:419 4:470.5 5:0.003399859 
9 1:20.7675 2:22.65 3:411 4:478 5:0.003428371 
9 1:20.79 2:22.79 3:411 4:492 5:0.003454488 
9 1:20.815 2:22.8675 3:411 4:497.75 5:0.00347167 
9 1:20.823333 2:23.033333 3:408.33333 4:499 5:0.003498792 
9 1:20.815 2:23.025 3:400 4:507 5:0.003495715 
9 1:20.89 2:23.175 3:396 4:514.75 5:0.003534987 
9 1:20.89 2:23.29 3:396 4:515 5:0.003552629 
9 1:20.89 2:23.29 3:396 4:520.75 5:0.003552629 
9 1:20.89 2:23.29 3:396 4:526 5:0.003552629 
9 1:20.89 2:23.323333 3:398.33333 4:527 5:0.003557743 
9 1:20.945 2:23.39 3:399.5 4:531.25 5:0.00358013 
9 1:20.963333 2:23.463333 3:413 4:536 5:0.003595494 
9 1:21 2:23.5 3:411 4:542.75 5:0.003609319 
9 1:21 2:23.5 3:411 4:541 5:0.003609319 
9 1:21 2:23.566667 3:411 4:548.5 5:0.003619618 
9 1:21 2:23.6 3:412.2 4:553.25 5:0.003624768 
9 1:21 2:23.6 3:405 4:559.25 5:0.003624768 
9 1:21 2:23.6 3:405 4:567.33333 5:0.003624768 
9 1:21 2:23.7 3:405 4:569 5:0.003640217 
9 1:21 2:23.7 3:405 4:576 5:0.003640217 
9 1:21.025 2:23.7225 3:405 4:578.75 5:0.003649329 
9 1:21.025 2:23.7225 3:412 4:585.75 5:0.003649329 
9 1:21.05 2:23.745 3:419 4:590 5:0.003658459 
9 1:21.025 2:23.7225 3:419 4:590 5:0.003649329 
9 1:21.1 2:23.76 3:419 4:587.66667 5:0.003672112 
9 1:21.075 2:23.72 3:419 4:594 5:0.003660236 
9 1:21.033333 2:23.666667 3:419 4:602.33333 5:0.003642565 
9 1:21.075 2:23.7675 3:419 4:611 5:0.003667608 
9 1:21.1 2:23.79 3:419 4:611.33333 5:0.003676776 
9 1:21.1 2:23.79 3:419 4:613 5:0.003676776 
9 1:21.1 2:23.73 3:419 4:615 5:0.003667449 
9 1:21.15 2:23.7225 3:419 4:615.75 5:0.003677624 
9 1:21.2 2:23.745 3:419 4:620.5 5:0.003692515 
9 1:21.2 2:23.79 3:419 4:630.66667 5:0.003699555 
9 1:21.2 2:23.79 3:419 4:640.5 5:0.003699555 
9 1:21.26 2:23.856667 3:423.66667 4:641 5:0.00372375 
9 1:21.29 2:23.865 3:422.5 4:650.75 5:0.00373196 
9 1:21.29 2:23.89 3:419 4:651 5:0.003735893 
9 1:21.323333 2:23.926667 3:428.33333 4:654.66667 5:0.003749364 
9 1:21.29 2:24 3:424.6 4:664.25 5:0.003753199 
9 1:21.34 2:24 3:426 4:675.4 5:0.003764793 
9 1:21.29 2:24.05 3:429.5 4:675 5:0.003761065 
9 1:21.29 2:24.1 3:419 4:679 5:0.003768932 
9 1:21.315 2:24.175 3:426 4:685.5 5:0.003786568 
9 1:21.29 2:24.2 3:419 4:689.33333 5:0.003784666 
9 1:21.29 2:24.2 3:433 4:692.75 5:0.003784666 
9 1:21.34 2:24.15 3:433 4:695.5 5:0.003788467 
9 1:21.323333 2:24.1 3:433 4:693.33333 5:0.003776691 
9 1:21.29 2:24.1 3:433 4:694.25 5:0.003768932 
9 1:21.34 2:24.2225 3:433 4:703 5:0.003799909 
9 1:21.29 2:24.29 3:433 4:704.5 5:0.003798827 
9 1:21.34 2:24.29 3:433 4:709 5:0.003810563 
9 1:21.34 2:24.29 3:433 4:721.5 5:0.003810563 
9 1:21.323333 2:24.29 3:426.66667 4:727 5:0.003806647 
9 1:21.356667 2:24.29 3:436.33333 4:733 5:0.003814482 
9 1:21.365 2:24.29 3:429 4:736.25 5:0.003816443 
9 1:21.39 2:24.29 3:429 4:742 5:0.003822332 
9 1:21.356667 2:24.29 3:429 4:742.66667 5:0.003814482 
9 1:21.323333 2:24.29 3:434 4:737 5:0.003806647 
9 1:21.39 2:24.2675 3:444 4:739.25 5:0.003818769 
9 1:21.323333 2:24.29 3:444 4:752 5:0.003806647 
9 1:21.39 2:24.29 3:444 4:753.75 5:0.003822332 
9 1:21.365 2:24.2225 3:441.75 4:746.25 5:0.003805773 
9 1:21.39 2:24.26 3:446 4:754.66667 5:0.003817582 
9 1:21.39 2:24.26 3:439 4:755.33333 5:0.003817582 
9 1:21.39 2:24.29 3:446.5 4:758.25 5:0.003822332 
9 1:21.39 2:24.29 3:446 4:766.6 5:0.003822332 
9 1:21.39 2:24.29 3:451.5 4:781 5:0.003822332 
9 1:21.4175 2:24.315 3:455.25 4:785.5 5:0.003832783 
9 1:21.39 2:24.29 3:447.33333 4:789.66667 5:0.003822332 
9 1:21.445 2:24.34 3:444 4:787.5 5:0.003843257 
9 1:21.463333 2:24.356667 3:455.66667 4:787.66667 5:0.003850253 
9 1:21.5 2:24.39 3:454 4:782.5 5:0.003864276 
9 1:21.5 2:24.39 3:457.33333 4:782.33333 5:0.003864276 
9 1:21.5 2:24.39 3:454 4:786 5:0.003864276 
9 1:21.5 2:24.356667 3:465.66667 4:786.66667 5:0.003858962 
9 1:21.5 2:24.365 3:465.5 4:785.25 5:0.003860291 
9 1:21.5 2:24.29 3:469.66667 4:788 5:0.003848335 
9 1:21.525 2:24.5425 3:478.5 4:791.25 5:0.003894583 
9 1:21.55 2:24.5175 3:471.25 4:808.75 5:0.003896587 
9 1:21.6 2:24.39 3:473 4:812 5:0.00388815 
9 1:22.1 2:26.2 3:439 4:1025.6667 5:0.004309086 
9 1:22 2:26.2 3:439 4:1025 5:0.004282712 
9 1:22.823333 2:25.856667 3:340.66667 4:983 5:0.00444472 
9 1:22.29 2:26.166667 3:334.33333 4:900.33333 5:0.004354007 
9 1:22.29 2:25.963333 3:454 4:801 5:0.004319939 
9 1:22.2 2:25.96 3:453 4:780 5:0.004295614 
9 1:22.2225 2:25.99 3:444 4:781.5 5:0.00430655 
9 1:22.2 2:26.1225 3:444 4:776.75 5:0.00432269 
9 1:22.2 2:26.05 3:444 4:782 5:0.00431061 
9 1:22.2 2:26.213 3:441.9 4:788.6 5:0.00433777 
9 1:22.2 2:26.376 3:439.8 4:795.2 5:0.004364933 
9 1:22.2 2:26.6 3:442.5 4:818.5 5:0.004402265 
9 1:22.2 2:26.666667 3:447 4:828.33333 5:0.004413376 
9 1:22.2 2:26.745 3:443.5 4:837 5:0.004426433 
9 1:22.2 2:26.823333 3:441 4:832.66667 5:0.00443949 
9 1:22.2 2:26.945 3:438 4:847.5 5:0.004459771 
9 1:22.2 2:27 3:438 4:849 5:0.00446894 
9 1:22.2 2:26.9175 3:438 4:850 5:0.004455187 
9 1:22.2 2:26.9175 3:447 4:842.5 5:0.004455187 
9 1:22.2 2:27.1 3:441 4:839 5:0.004485611 
9 1:22.245 2:27.125 3:438 4:847.75 5:0.004502188 
9 1:22.2 2:27.196667 3:441 4:860 5:0.004501727 
9 1:22.2 2:27.4175 3:438 4:885.75 5:0.004538547 
9 1:22.2 2:27.5 3:429 4:910 5:0.004552304 
9 1:22.2675 2:27.4225 3:429 4:917.25 5:0.004558213 
9 1:22.2 2:26.8975 3:438 4:919.75 5:0.004451853 
9 1:22.23 2:27.73 3:441 4:932 5:0.004599115 
9 1:22.2 2:27.745 3:438 4:942 5:0.00459316 
9 1:22.2675 2:28.025 3:429 4:959.75 5:0.004659112 
9 1:22.2 2:28 3:444 4:966.5 5:0.00463569 
9 1:22.2 2:28.1 3:451 4:970.66667 5:0.00465237 
9 1:22.4725 2:26.745 3:429 4:1077.5 5:0.004500966 
9 1:22.445 2:26.695 3:429 4:1077.5 5:0.004484933 
9 1:22.445 2:26.745 3:429 4:1083.25 5:0.004493394 
9 1:22.426667 2:26.696667 3:429 4:1088 5:0.004480183 
9 1:22.39 2:26.26 3:432.75 4:1065.5 5:0.0043965 
9 1:22.39 2:26.045 3:429 4:1046 5:0.004360252 
9 1:22.39 2:26.29 3:435 4:1049.6667 5:0.004401559 
9 1:22.39 2:26.29 3:438 4:1044.5 5:0.004401559 
9 1:22.29 2:26.22 3:438 4:1041.5 5:0.004362944 
9 1:22.2675 2:25.8925 3:438 4:1039 5:0.004302135 
9 1:22.29 2:25.856667 3:433 4:1038.6667 5:0.004302068 
9 1:22.245 2:25.7225 3:433 4:1030.5 5:0.004267805 
9 1:22.23 2:25.666667 3:433 4:1023.6667 5:0.004254563 
9 1:22.29 2:25.6 3:433 4:1019.5 5:0.004259071 
9 1:22.245 2:25.55 3:433 4:1010 5:0.004238989 
9 1:22.2675 2:25.575 3:433 4:1002.75 5:0.004249021 
9 1:22.29 2:25.566667 3:433 4:1002.3333 5:0.004253488 
9 1:22.2675 2:25.4975 3:433 4:998.75 5:0.004236057 
9 1:22.245 2:25.55 3:433 4:1002 5:0.004238989 
9 1:22.29 2:25.5 3:433 4:1002.25 5:0.004242321 
9 1:22.29 2:25.5 3:433 4:1001.5 5:0.004242321 
9 1:22.29 2:25.445 3:433 4:998.5 5:0.004233108 
9 1:22.29 2:25.2 3:433 4:990.75 5:0.004192075 
9 1:22.29 2:25.23 3:433 4:991 5:0.004197099 
9 1:22.245 2:25.15 3:433 4:986 5:0.00417218 
9 1:22.29 2:25.2675 3:433 4:976.25 5:0.004203379 
9 1:22.29 2:25.2 3:433 4:966 5:0.004192075 
9 1:22.29 2:25.2 3:433 4:966.33333 5:0.004192075 
9 1:22.29 2:25.15 3:433 4:967.5 5:0.004183701 
9 1:22.29 2:25.03 3:433 4:970 5:0.004163605 
9 1:22.2225 2:24.865 3:433 4:954.75 5:0.004118903 
9 1:22.26 2:24.826667 3:433 4:951.66667 5:0.004121974 
9 1:22.245 2:24.89 3:433 4:940.75 5:0.004128762 
9 1:22.245 2:24.89 3:433 4:935.5 5:0.004128762 
9 1:22.2225 2:24.84 3:433 4:933.25 5:0.004114734 
9 1:22.2 2:24.7 3:433 4:937.66667 5:0.004085752 
9 1:22.2 2:24.7 3:433 4:938 5:0.004085752 
9 1:22.2 2:24.7 3:433 4:933.5 5:0.004085752 
9 1:22.2 2:24.7 3:433 4:925.5 5:0.004085752 
9 1:22.2 2:24.65 3:433 4:921 5:0.004077427 
9 1:22.2 2:24.566667 3:433 4:920.33333 5:0.004063552 
9 1:22.2 2:24.55 3:433 4:912.25 5:0.004060778 
9 1:22.2 2:24.334 3:429.5 4:913 5:0.004024818 
9 1:22.2 2:24.34 3:433 4:903 5:0.004025817 
9 1:22.2 2:24.395 3:433 4:905.5 5:0.004034973 
9 1:22.2 2:24.34 3:433 4:907 5:0.004025817 
9 1:22.2 2:24.356667 3:433 4:903 5:0.004028591 
9 1:22.175 2:24.39 3:433 4:900.5 5:0.004027962 
9 1:22.175 2:24.365 3:433 4:900.25 5:0.004023807 
9 1:22.2 2:24.365 3:433 4:900.5 5:0.004029979 
9 1:22.133333 2:24.29 3:433 4:898.66667 5:0.004001106 
9 1:22.15 2:24.2225 3:433 4:892 5:0.003993996 
9 1:22.133333 2:24.2 3:433 4:886 5:0.003986186 
9 1:22.1 2:24.2675 3:433 4:884.25 5:0.003989211 
9 1:22.1 2:24.245 3:433 4:887 5:0.003985489 
9 1:22.1 2:24.29 3:433 4:884 5:0.003992934 
9 1:22.125 2:24.2675 3:433 4:878.5 5:0.003995333 
9 1:22.133333 2:24.26 3:433 4:887 5:0.003996132 
9 1:22.125 2:24.15 3:433 4:882.25 5:0.003975865 
9 1:22.1 2:24.0725 3:433 4:879.25 5:0.003956952 
9 1:22.1 2:23.996667 3:433 4:866 5:0.003944408 
9 1:22.1 2:24.12 3:433 4:866 5:0.00396481 
9 1:22.066667 2:23.926667 3:433 4:863 5:0.003924796 
9 1:22.025 2:23.945 3:433 4:853.25 5:0.003917793 
9 1:22 2:23.926667 3:433 4:858 5:0.003908772 
9 1:22 2:23.89 3:433 4:852.5 5:0.003902744 
9 1:22 2:23.89 3:433 4:850.66667 5:0.003902744 
9 1:22.025 2:23.9175 3:433 4:847 5:0.003913265 
9 1:22 2:23.89 3:433 4:840.66667 5:0.003902744 
9 1:22.075 2:23.9725 3:426 4:839 5:0.003934372 
9 1:22.025 2:24.0475 3:213 4:845.5 5:0.003934669 
9 1:20.2 2:18.6 3:401.33333 4:439 5:0.002715358 
9 1:20.15 2:18.7 3:419 4:457.25 5:0.002721553 
9 1:20.125 2:18.865 3:411 4:458 5:0.00274141 
9 1:20.15 2:18.89 3:411 4:460 5:0.002749327 
9 1:20.2 2:18.89 3:411 4:459.75 5:0.002757882 
9 1:20.2 2:19.05 3:411 4:464 5:0.002781346 
9 1:20.2225 2:19.05 3:407.5 4:463.5 5:0.002785236 
9 1:20.2675 2:19.2175 3:400 4:470.25 5:0.0028177 
9 1:20.29 2:19.2225 3:400 4:483.5 5:0.002822377 
9 1:20.315 2:19.245 3:413 4:488.66667 5:0.002830085 
9 1:20.39 2:19.22 3:412.2 4:496.25 5:0.002839577 
9 1:20.39 2:19.26 3:409 4:496.25 5:0.002845514 
9 1:20.4175 2:19.29 3:411 4:497 5:0.002854832 
9 1:20.426667 2:19.163333 3:413 4:504 5:0.002837614 
9 1:20.4725 2:19.0975 3:411 4:503.25 5:0.00283587 
9 1:20.525 2:19.315 3:411 4:509.25 5:0.002877666 
9 1:20.5 2:19.2425 3:405 4:515 5:0.002862376 
9 1:20.566667 2:19.2 3:409 4:515.33333 5:0.002867849 
9 1:20.625 2:19.4175 3:405 4:524.5 5:0.002910988 
9 1:20.65 2:19.4725 3:408.5 4:531 5:0.002923796 
9 1:20.7 2:19.5 3:418.33333 4:530.33333 5:0.002937022 
9 1:20.7 2:19.5 3:419 4:533.66667 5:0.002937022 
9 1:20.7 2:19.575 3:419 4:535.75 5:0.002948372 
9 1:20.7225 2:19.6 3:419 4:546.25 5:0.00295627 
9 1:20.7 2:19.533333 3:419 4:547 5:0.002942066 
9 1:20.79 2:19.4725 3:419 4:546.25 5:0.00294924 
9 1:20.79 2:19.5 3:419 4:551.25 5:0.002953425 
9 1:20.79 2:19.533333 3:419 4:560 5:0.002958497 
9 1:20.79 2:19.525 3:419 4:564 5:0.002957229 
9 1:20.815 2:19.625 3:419 4:568.75 5:0.002977048 
9 1:20.79 2:19.633333 3:419 4:572 5:0.002973716 
9 1:20.84 2:19.65 3:419 4:573 5:0.002985471 
9 1:20.89 2:19.72 3:419 4:575.25 5:0.003005434 
9 1:20.865 2:19.65 3:419 4:579.5 5:0.002990089 
9 1:20.89 2:19.6 3:426 4:583.5 5:0.002987058 
9 1:20.89 2:19.633333 3:423.66667 4:585.33333 5:0.002992162 
9 1:20.89 2:19.7 3:426 4:587.5 5:0.003002371 
9 1:20.89 2:19.65 3:422.5 4:591.5 5:0.002994714 
9 1:20.89 2:19.7 3:426 4:594 5:0.003002371 
9 1:20.89 2:19.625 3:419 4:597.5 5:0.002990886 
9 1:20.89 2:19.633333 3:428.33333 4:595.33333 5:0.002992162 
9 1:20.865 2:19.675 3:429.5 4:590.75 5:0.002993912 
9 1:20.865 2:19.7425 3:429.5 4:589.75 5:0.003004233 
9 1:20.823333 2:19.666667 3:433 4:591 5:0.002984937 
9 1:20.84 2:19.695 3:433 4:589.5 5:0.002992341 
9 1:20.89 2:19.7225 3:433 4:595.75 5:0.003005817 
9 1:20.865 2:19.7225 3:433 4:596.75 5:0.003001175 
9 1:20.856667 2:19.76 3:433 4:598.66667 5:0.00300536 
9 1:20.865 2:19.7675 3:433 4:605.5 5:0.003008055 
9 1:20.84 2:19.745 3:433 4:609 5:0.002999974 
9 1:20.84 2:19.745 3:433 4:614 5:0.002999974 
9 1:20.84 2:19.745 3:433 4:614.75 5:0.002999974 
9 1:20.89 2:19.79 3:433 4:621 5:0.003016154 
9 1:20.865 2:19.7675 3:433 4:620.25 5:0.003008055 
9 1:20.865 2:19.7675 3:433 4:617.5 5:0.003008055 
9 1:20.865 2:19.7675 3:433 4:621.25 5:0.003008055 
9 1:20.89 2:19.79 3:433 4:616.66667 5:0.003016154 
9 1:20.865 2:19.7675 3:433 4:620 5:0.003008055 
9 1:20.856667 2:19.76 3:433 4:628.33333 5:0.00300536 
9 1:20.84 2:19.7675 3:433 4:635.25 5:0.003003409 
9 1:20.865 2:19.7675 3:433 4:636.5 5:0.003008055 
9 1:20.89 2:19.79 3:433 4:635.5 5:0.003016154 
9 1:20.89 2:19.79 3:433 4:635.75 5:0.003016154 
9 1:20.865 2:19.7675 3:433 4:637.5 5:0.003008055 
9 1:20.84 2:19.745 3:433 4:629.75 5:0.002999974 
9 1:20.865 2:19.7675 3:433 4:637.25 5:0.003008055 
9 1:20.89 2:19.79 3:433 4:647.33333 5:0.003016154 
9 1:20.865 2:19.7675 3:433 4:646 5:0.003008055 
9 1:20.823333 2:19.73 3:433 4:642.66667 5:0.002994596 
9 1:20.856667 2:19.793333 3:433 4:648 5:0.003010454 
9 1:20.89 2:19.79 3:433 4:655 5:0.003016154 
9 1:20.9175 2:19.79 3:433 4:650.5 5:0.003021285 
9 1:20.926667 2:19.79 3:433 4:643.66667 5:0.003022998 
9 1:20.9175 2:19.79 3:433 4:642 5:0.003021285 
9 1:20.963333 2:19.79 3:433 4:639.33333 5:0.003029855 
9 1:20.89 2:19.79 3:436.5 4:648 5:0.003016154 
9 1:20.89 2:19.815 3:426 4:649 5:0.003019983 
9 1:20.89 2:19.79 3:433 4:654 5:0.003016154 
9 1:20.89 2:19.926667 3:433 4:660 5:0.003037085 
9 1:20.89 2:20.133333 3:442.33333 4:677.33333 5:0.003068739 
9 1:20.89 2:20.354 3:435.8 4:698.2 5:0.003102541 
9 1:20.89 2:20.4725 3:447 4:709.25 5:0.003120694 
9 1:20.926667 2:20.39 3:442.33333 4:712 5:0.003115109 
9 1:20.945 2:20.5 3:443.5 4:710 5:0.00313555 
9 1:20.945 2:20.445 3:447 4:708 5:0.003127095 
9 1:20.945 2:20.55 3:447 4:707.5 5:0.003143236 
9 1:20.945 2:20.6975 3:447 4:725.75 5:0.003165912 
9 1:20.9725 2:20.7675 3:438 4:733.25 5:0.003182078 
9 1:21 2:20.79 3:441 4:735.33333 5:0.00319096 
9 1:21 2:20.815 3:438 4:740.75 5:0.003194817 
9 1:21 2:20.865 3:438 4:744.25 5:0.003202531 
9 1:21 2:20.79 3:438 4:757 5:0.00319096 
9 1:21 2:20.79 3:440 4:759 5:0.00319096 
9 1:21 2:20.815 3:437.25 4:752.25 5:0.003194817 
9 1:21 2:20.865 3:438 4:754.5 5:0.003202531 
9 1:21.025 2:20.945 3:440.25 4:758.5 5:0.003219843 
9 1:21.05 2:21 3:436.5 4:764 5:0.003233331 
9 1:21.05 2:21.05 3:441 4:765.25 5:0.003241069 
9 1:21.1 2:21.15 3:436.5 4:769.75 5:0.003266618 
9 1:21.1 2:21.245 3:444 4:780.25 5:0.003281368 
9 1:21.1 2:21.29 3:444 4:786 5:0.003288355 
9 1:21.1 2:21.2225 3:444 4:783.25 5:0.003277875 
9 1:21.1 2:21.2675 3:444 4:787 5:0.003284862 
9 1:21.1 2:21.2 3:444 4:787.66667 5:0.003274381 
9 1:21.1 2:21.2 3:448 4:786.75 5:0.003274381 
9 1:21.1 2:21.2 3:444 4:782.5 5:0.003274381 
9 1:21.1 2:21.1 3:454.75 4:779.75 5:0.003258855 
9 1:21.1 2:21.05 3:454.75 4:777.5 5:0.003251092 
9 1:21.1 2:21.1 3:460 4:779.33333 5:0.003258855 
9 1:21.175 2:21.075 3:449.5 4:782.75 5:0.003270077 
9 1:21.15 2:21.05 3:449.5 4:787.5 5:0.003261142 
9 1:21.2 2:21.075 3:454.75 4:777 5:0.003275125 
9 1:21.2 2:21.066667 3:449.33333 4:789.66667 5:0.003273823 
9 1:21.175 2:21.075 3:460 4:805.25 5:0.003270077 
9 1:21.2 2:20.9975 3:456 4:801.25 5:0.003263018 
9 1:21.2 2:21 3:460 4:796 5:0.003263409 
9 1:21.2225 2:21.025 3:449.5 4:793.25 5:0.003271853 
9 1:21.29 2:20.963333 3:453 4:788.33333 5:0.003275814 
9 1:21.2675 2:21 3:460 4:794.5 5:0.003277024 
9 1:21.29 2:21 3:460 4:797.5 5:0.003281574 
9 1:21.323333 2:21.033333 3:460 4:810 5:0.003293571 
9 1:21.29 2:21 3:450.75 4:812.5 5:0.003281574 
9 1:21.29 2:21.033333 3:454.66667 4:813.66667 5:0.00328681 
9 1:21.315 2:20.9725 3:444 4:809.25 5:0.003282309 
9 1:21.29 2:21 3:444 4:812.33333 5:0.003281574 
9 1:21.29 2:21.033333 3:454.66667 4:807.66667 5:0.00328681 
9 1:21.315 2:21 3:460 4:810.5 5:0.003286635 
9 1:21.34 2:21 3:452 4:811.5 5:0.003291704 
9 1:21.325 2:20.978 3:456 4:808 5:0.003285198 
9 1:21.31 2:20.956 3:460 4:804.5 5:0.003278702 
9 1:21.323333 2:20.86 3:460 4:797.33333 5:0.003266287 
9 1:21.356667 2:20.926667 3:460 4:796.33333 5:0.003283519 
9 1:21.39 2:20.865 3:449.5 4:798.5 5:0.003280523 
9 1:21.39 2:20.79 3:460 4:796 5:0.003268669 
9 1:21.34 2:20.995 3:449.5 4:801.25 5:0.003290916 
9 1:21.34 2:21.1 3:449.5 4:811 5:0.003307462 
9 1:21.29 2:21.245 3:460 4:821.5 5:0.003320063 
9 1:21.34 2:21.2675 3:455.5 4:830.25 5:0.003333858 
9 1:21.29 2:21.29 3:457 4:835 5:0.003327133 
9 1:21.34 2:21.2 3:449.5 4:831 5:0.003323221 
9 1:21.315 2:21.29 3:454.75 4:834.75 5:0.003332265 
9 1:21.29 2:21.29 3:460 4:837 5:0.003327133 
9 1:21.315 2:21.29 3:460 4:841 5:0.003332265 
9 1:21.315 2:21.2675 3:460 4:844.5 5:0.003328725 
9 1:21.39 2:21.34 3:460 4:847 5:0.003355608 
9 1:21.39 2:21.2675 3:454.75 4:842.5 5:0.003344147 
9 1:21.39 2:21.2 3:453 4:841 5:0.003333476 
9 1:21.39 2:21.2475 3:449.5 4:839.5 5:0.003340985 
9 1:21.365 2:21.3175 3:454.75 4:844.5 5:0.003346891 
9 1:21.39 2:21.2 3:457 4:847 5:0.003333476 
9 1:21.39 2:21.2675 3:454 4:847.75 5:0.003344147 
9 1:21.323333 2:21.23 3:464 4:843.33333 5:0.003324531 
9 1:21.365 2:21.315 3:461.5 4:847.25 5:0.003346497 
9 1:21.39 2:21.34 3:449.5 4:848.5 5:0.003355608 
9 1:21.34 2:21.445 3:449.5 4:848.5 5:0.003361833 
9 1:21.39 2:21.39 3:454 4:854.25 5:0.003363513 
9 1:21.34 2:21.1475 3:455.5 4:848.25 5:0.003314947 
9 1:21.356667 2:21.2 3:468 4:844.33333 5:0.003326636 
9 1:21.29 2:21.2 3:454 4:836.5 5:0.003312993 
9 1:21.323333 2:21.2 3:454 4:838 5:0.003319808 
9 1:21.315 2:21.125 3:469 4:841.5 5:0.003306302 
9 1:21.34 2:21 3:469 4:832 5:0.003291704 
9 1:21.315 2:20.865 3:469 4:825 5:0.003265396 
9 1:21.315 2:20.9175 3:465.25 4:824 5:0.003273655 
9 1:21.29 2:21.175 3:475.25 4:826.75 5:0.003309066 
9 1:21.29 2:21.1 3:464 4:824 5:0.003297283 
9 1:21.29 2:21.2 3:459 4:827.5 5:0.003312993 
9 1:21.29 2:21.236 3:468.2 4:843.5 5:0.003318649 
9 1:21.365 2:21.17 3:474 4:845.6 5:0.00332361 
9 1:21.323333 2:21.066667 3:474 4:825.66667 5:0.003298818 
9 1:21.79 2:20.945 3:464 4:844.5 5:0.003375208 
9 1:21.7675 2:20.7925 3:471.5 4:846.75 5:0.003345873 
9 1:21.76 2:20.73 3:471 4:849 5:0.003334225 
9 1:21.79 2:20.5 3:467.66667 4:830.33333 5:0.003303117 
9 1:21.79 2:20.65 3:469.25 4:829.5 5:0.003327416 
9 1:21.73 2:20.566667 3:462.33333 4:830.66667 5:0.003301723 
9 1:21.79 2:20.6 3:462.75 4:834.25 5:0.003319316 
9 1:21.79 2:20.6225 3:462.75 4:833.5 5:0.003322961 
9 1:21.79 2:20.5 3:472.33333 4:827.66667 5:0.003303117 
9 1:21.745 2:20.5 3:479 4:822.33333 5:0.003293999 
9 1:21.745 2:20.6 3:471.5 4:821.75 5:0.003310153 
9 1:21.7 2:20.666667 3:464 4:826 5:0.003311751 
9 1:21.7225 2:20.65 3:475.25 4:829.5 5:0.003313645 
9 1:21.7 2:20.6 3:464 4:823 5:0.003301012 
9 1:21.7 2:20.6 3:469 4:824 5:0.003301012 
9 1:21.7 2:20.6 3:467.75 4:825.25 5:0.003301012 
9 1:21.7 2:20.575 3:484 4:796 5:0.003296984 
9 1:21.7 2:20.4425 3:467.75 4:801 5:0.00327564 
9 1:21.7 2:20.39 3:464 4:803 5:0.003267184 
9 1:21.7 2:20.39 3:469 4:795.66667 5:0.003267184 
9 1:21.7 2:20.4175 3:464 4:794 5:0.003271613 
9 1:21.7 2:20.5 3:471 4:787 5:0.003284903 
9 1:21.7 2:20.39 3:462.75 4:787 5:0.003267184 
9 1:21.7 2:20.39 3:481.5 4:788 5:0.003267184 
9 1:21.7 2:20.39 3:479 4:786.5 5:0.003267184 
9 1:21.7 2:20.39 3:469.25 4:788.25 5:0.003267184 
9 1:21.7 2:20.39 3:469 4:788.33333 5:0.003267184 
9 1:21.7 2:20.39 3:469 4:781 5:0.003267184 
9 1:21.65 2:20.365 3:457.75 4:788.75 5:0.003253143 
9 1:21.633333 2:20.323333 3:460.66667 4:790.66667 5:0.003243127 
9 1:21.65 2:20.34 3:465.5 4:789.5 5:0.003249129 
9 1:21.7 2:20.39 3:474.33333 4:794.33333 5:0.003267184 
9 1:21.675 2:20.4175 3:477.75 4:792.5 5:0.00326659 
9 1:21.7 2:20.463333 3:480.66667 4:795 5:0.003278996 
9 1:21.7 2:20.39 3:479 4:806.66667 5:0.003267184 
9 1:21.79 2:20.245 3:471.5 4:806 5:0.003261814 
9 1:21.73 2:20.356667 3:474 4:812.66667 5:0.003267833 
9 1:21.76 2:20.39 3:479 4:820.33333 5:0.003279251 
9 1:21.7675 2:20.545 3:479 4:817.5 5:0.003305835 
9 1:21.79 2:20.39 3:479 4:811.33333 5:0.0032853 
9 1:21.7 2:20.1 3:489 4:752 5:0.003220475 
9 1:21.7 2:20.125 3:481.25 4:757.5 5:0.003224501 
9 1:21.7 2:20.025 3:489 4:759 5:0.003208396 
9 1:21.7 2:20 3:377.75 4:757.75 5:0.00320437 
9 1:21.29 2:19.745 3:293.5 4:662.25 5:0.003084488 
9 1:21.29 2:19.7 3:440 4:660 5:0.003077424 
9 1:21.29 2:19.625 3:483.75 4:662.5 5:0.00306565 
9 1:21.29 2:19.575 3:492.75 4:658.75 5:0.003057801 
9 1:21.29 2:19.6 3:499 4:659.25 5:0.003061725 
9 1:21.29 2:19.55 3:489 4:652 5:0.003053876 
9 1:21.29 2:19.6 3:479 4:653.5 5:0.003061725 
9 1:21.29 2:19.55 3:486.5 4:658.5 5:0.003053876 
9 1:21.29 2:19.4175 3:489 4:656 5:0.003033078 
9 1:21.29 2:19.525 3:490.25 4:652.5 5:0.003049952 
9 1:21.29 2:19.6 3:486.5 4:658.5 5:0.003061725 
9 1:21.39 2:19.5 3:495 4:665.25 5:0.003064852 
9 1:21.39 2:19.5 3:480.66667 4:660 5:0.003064852 
9 1:21.39 2:19.5 3:485.25 4:663.25 5:0.003064852 
9 1:21.445 2:19.5 3:494 4:665 5:0.003075249 
9 1:21.5 2:19.5 3:500.66667 4:668.66667 5:0.003085676 
9 1:21.5 2:19.445 3:508.5 4:664 5:0.00307693 
9 1:21.5 2:19.4175 3:500.25 4:655.25 5:0.003072557 
9 1:21.5 2:19.4725 3:507.5 4:655.5 5:0.003081303 
9 1:21.7 2:19.166667 3:509 4:646 5:0.003070196 
9 1:22.066667 2:21.066667 3:464 4:876.33333 5:0.003453053 
9 1:22.075 2:21.1725 3:467.75 4:865 5:0.00347227 
9 1:22 2:21.15 3:469 4:877.75 5:0.003452645 
9 1:22 2:20.8675 3:469 4:867.75 5:0.003406275 
9 1:22 2:20.945 3:469 4:861 5:0.003418996 
9 1:22 2:21.32 3:469 4:866.5 5:0.003480552 
1.852843915343915 1:22 2:21.05 3:469 4:880 5:0.00343623 
9 1:22 2:21.2725 3:469 4:874 5:0.003472754 
9 1:21.89 2:21.323333 3:469 4:879 5:0.003457681 
9 1:21.9175 2:21.315 3:469 4:879 5:0.003462161 
9 1:21.89 2:21.245 3:469 4:877 5:0.003444908 
9 1:21.89 2:21.22 3:469 4:875.75 5:0.003440832 
9 1:21.89 2:21.34 3:469 4:877 5:0.003460399 
9 1:21.89 2:21.29 3:461.5 4:879 5:0.003452246 
9 1:21.89 2:21.1725 3:454 4:871.75 5:0.003433088 
9 1:21.89 2:21.5225 3:454 4:880.5 5:0.003490158 
9 1:21.89 2:21.39 3:454 4:895.66667 5:0.003468552 
9 1:21.89 2:21.2675 3:454 4:896 5:0.003448577 
9 1:21.865 2:21.32 3:459.25 4:883 5:0.003451835 
9 1:21.865 2:21.3175 3:464.5 4:890.5 5:0.003451428 
9 1:21.79 2:21.1975 3:464.5 4:902.5 5:0.003416121 
9 1:21.745 2:21.1725 3:457 4:876 5:0.003402649 
9 1:21.79 2:21.445 3:464.5 4:890 5:0.003456229 
9 1:21.745 2:21.34 3:453.25 4:893 5:0.003429717 
9 1:21.73 2:21.293333 3:453 4:891.66667 5:0.003419022 
9 1:21.7225 2:21.5225 3:454.75 4:897.5 5:0.00345443 
9 1:21.7225 2:21.5225 3:460 4:903.75 5:0.00345443 
9 1:21.7 2:21.34 3:460 4:908.5 5:0.003420244 
9 1:21.73 2:21.566667 3:460 4:907 5:0.003463155 
9 1:21.7225 2:21.525 3:460 4:910.5 5:0.003454834 
9 1:21.745 2:21.675 3:460 4:917.25 5:0.003483859 
9 1:21.79 2:21.6 3:460 4:926.5 5:0.00348135 
9 1:21.79 2:21.55 3:460 4:925 5:0.003473246 
9 1:21.79 2:21.633333 3:460 4:921.66667 5:0.003486752 
9 1:21.7675 2:21.6975 3:444 4:962 5:0.003492321 
9 1:21.76 2:21.826667 3:449.33333 4:944 5:0.00351161 
9 1:21.7225 2:21.8925 3:444 4:953.5 5:0.003514152 
9 1:21.745 2:21.815 3:444 4:949 5:0.003506488 
9 1:21.7 2:21.823333 3:444 4:948.66667 5:0.003498145 
9 1:21.745 2:21.815 3:444 4:952.75 5:0.003506488 
9 1:21.7225 2:21.97 3:444 4:951.25 5:0.003526663 
9 1:21.79 2:22.05 3:444 4:961.5 5:0.003554292 
9 1:21.79 2:21.775 3:444 4:964.25 5:0.003509714 
9 1:21.7675 2:21.745 3:444 4:951 5:0.003500009 
9 1:21.79 2:21.793333 3:444 4:945.66667 5:0.003512686 
9 1:21.79 2:21.7225 3:444 4:936 5:0.003501205 
9 1:21.7675 2:21.79 3:444 4:935 5:0.003507293 
9 1:21.79 2:21.745 3:444 4:938 5:0.003504852 
9 1:21.7675 2:21.8175 3:444 4:926.75 5:0.003511745 
9 1:21.7675 2:21.89 3:444 4:932 5:0.00352348 
9 1:21.79 2:21.79 3:447.4 4:942 5:0.003512146 
9 1:21.79 2:21.79 3:450.66667 4:935 5:0.003512146 
9 1:21.79 2:21.79 3:449 4:937.5 5:0.003512146 
9 1:21.79 2:21.65 3:438 4:927.25 5:0.003489454 
9 1:21.79 2:21.6 3:438 4:916.5 5:0.00348135 
9 1:21.79 2:21.745 3:438 4:914 5:0.003504852 
9 1:21.79 2:21.7 3:441 4:910 5:0.003497558 
9 1:21.79 2:21.65 3:437.25 4:923 5:0.003489454 
9 1:21.84 2:21.65 3:436.5 4:918.75 5:0.003500188 
9 1:21.84 2:21.6 3:429 4:904 5:0.003492059 
9 1:21.79 2:21.395 3:432.75 4:901 5:0.003448126 
9 1:21.79 2:21.6 3:438 4:893 5:0.00348135 
9 1:21.79 2:21.6225 3:438 4:885.5 5:0.003484997 
9 1:21.745 2:21.575 3:438 4:890 5:0.003467696 
9 1:21.7225 2:21.5475 3:438 4:886.5 5:0.003458465 
9 1:21.7 2:21.426667 3:441 4:887 5:0.003434211 
9 1:21.7 2:21.525 3:438 4:883.25 5:0.003450059 
9 1:21.7 2:21.445 3:438 4:874 5:0.003437165 
9 1:21.7 2:21.575 3:447 4:874 5:0.003458117 
9 1:21.7 2:21.533333 3:447 4:871.66667 5:0.003451402 
9 1:21.7 2:21.6 3:447 4:879.25 5:0.003462147 
9 1:21.7 2:21.516 3:441.4 4:872.75 5:0.003448608 
9 1:21.7 2:21.36 3:447 4:868.5 5:0.003423467 
9 1:21.7 2:21.5 3:443.5 4:859.75 5:0.00344603 
9 1:21.7 2:21.2675 3:433 4:848.25 5:0.00340856 
9 1:21.666667 2:21.39 3:433 4:843 5:0.003421283 
9 1:21.625 2:21.315 3:433 4:849 5:0.003400496 
9 1:21.6 2:21.39 3:433 4:841.66667 5:0.003407283 
9 1:21.6 2:21.39 3:433 4:847.5 5:0.003407283 
9 1:21.6 2:21.34 3:433 4:844.25 5:0.003399275 
9 1:21.6 2:21.323333 3:433 4:844.33333 5:0.003396605 
9 1:21.6 2:21.29 3:433 4:838.75 5:0.003391267 
9 1:21.6 2:21.29 3:433 4:831.66667 5:0.003391267 
9 1:21.6 2:21.2675 3:433 4:822.25 5:0.003387663 
9 1:21.6 2:21.2 3:433 4:817.5 5:0.003376853 
9 1:21.6 2:21.133333 3:433 4:819 5:0.003366176 
9 1:21.6 2:21.133333 3:433 4:817.66667 5:0.003366176 
9 1:21.6 2:21.2 3:433 4:818 5:0.003376853 
9 1:21.625 2:21.2225 3:433 4:819.75 5:0.003385659 
9 1:21.65 2:21.2 3:433 4:819.5 5:0.003387254 
9 1:21.666667 2:21.226667 3:433 4:813 5:0.003395015 
9 1:21.65 2:21.125 3:433 4:811.75 5:0.003375206 
9 1:21.675 2:21.175 3:433 4:813.75 5:0.003388442 
9 1:21.7 2:21.125 3:433 4:812 5:0.003385597 
9 1:21.7 2:21.05 3:433 4:801 5:0.003373512 
9 1:21.633333 2:20.963333 3:433 4:801 5:0.003345806 
9 1:21.675 2:21.175 3:433 4:798.75 5:0.003388442 
9 1:21.7 2:21.08 3:433 4:805.75 5:0.003378346 
9 1:21.7 2:20.89 3:433 4:802.25 5:0.003347732 
9 1:21.625 2:20.9975 3:433 4:791.5 5:0.003349571 
9 1:21.65 2:20.9175 3:433 4:790.5 5:0.003341874 
9 1:21.65 2:20.89 3:433 4:780.5 5:0.003337457 
9 1:21.7 2:20.9175 3:433 4:781 5:0.003352163 
9 1:21.7 2:20.963333 3:433 4:780.33333 5:0.003359548 
9 1:21.7 2:20.856667 3:433 4:778 5:0.003342362 
9 1:21.7 2:20.865 3:433 4:778.5 5:0.003343704 
9 1:21.7 2:20.945 3:433 4:780.75 5:0.003356594 
9 1:21.7 2:20.84 3:433 4:772 5:0.003339676 
9 1:21.7 2:20.89 3:433 4:777 5:0.003347732 
9 1:21.7 2:20.89 3:426 4:780.5 5:0.003347732 
9 1:19.525 2:27.025 3:289.75 4:473.75 5:0.003790078 
9 1:19.5 2:27.1 3:440 4:481.5 5:0.003794721 
9 1:19.525 2:27.125 3:412 4:479 5:0.003804188 
9 1:19.575 2:27.675 3:397 4:496.5 5:0.003893964 
9 1:19.575 2:27.6 3:405 4:501.5 5:0.003883346 
9 1:19.633333 2:27.633333 3:405 4:506.66667 5:0.003902271 
9 1:19.666667 2:27.73 3:405 4:510.66667 5:0.003924175 
9 1:19.633333 2:27.73 3:399.66667 4:512 5:0.003916008 
9 1:19.625 2:27.745 3:393 4:517 5:0.003916099 
9 1:19.633333 2:27.79 3:393.66667 4:515 5:0.003924535 
9 1:19.7 2:27.9175 3:389 4:528.75 5:0.003959116 
9 1:19.7 2:27.963333 3:393.66667 4:534.33333 5:0.003965658 
9 1:19.745 2:28.05 3:389 4:541 5:0.003989226 
9 1:19.7675 2:28.175 3:392.5 4:546 5:0.004012754 
9 1:19.79 2:28.1 3:393.66667 4:553 5:0.00400763 
9 1:19.79 2:28.2675 3:392.5 4:559.75 5:0.004031674 
9 1:19.79 2:28.323333 3:389 4:572.33333 5:0.004039689 
9 1:19.84 2:28.6975 3:389 4:578.75 5:0.004106207 
9 1:19.89 2:28.625 3:389 4:595 5:0.004108567 
9 1:19.89 2:28.65 3:389 4:599 5:0.004112179 
9 1:19.9175 2:28.8175 3:393 4:606.5 5:0.004143485 
9 1:19.963333 2:28.96 3:399.66667 4:622 5:0.004176036 
9 1:19.945 2:29.05 3:397 4:636 5:0.004184313 
9 1:20 2:29.1975 3:405 4:655.5 5:0.004220155 
9 1:20 2:29.39 3:405 4:661.33333 5:0.004248169 
9 1:20 2:29.445 3:405 4:680.8 5:0.004256173 
9 1:20.05 2:29.575 3:405 4:689.75 5:0.004288444 
9 1:20.1 2:29.745 3:405 4:695.5 5:0.00432673 
9 1:20.1 2:29.79 3:405 4:701 5:0.004333322 
9 1:20.1 2:29.823 3:406.75 4:710.125 5:0.004338155 
9 1:20.1 2:29.856 3:408.5 4:719.25 5:0.004342989 
9 1:20.2 2:29.945 3:419 4:736 5:0.004383252 
9 1:20.125 2:29.9725 3:419 4:743.75 5:0.004366853 
9 1:20.15 2:30.15 3:419 4:759 5:0.004399746 
9 1:20.175 2:30.15 3:419 4:765.75 5:0.004406604 
9 1:20.2 2:30.195 3:419 4:769.5 5:0.004420106 
9 1:20.215 2:30.2275 3:419 4:774.91667 5:0.004429034 
9 1:20.23 2:30.26 3:419 4:780.33333 5:0.004437973 
9 1:20.29 2:30.4175 3:422.5 4:802.75 5:0.004477936 
9 1:20.29 2:30.445 3:422.5 4:814.75 5:0.004482014 
9 1:20.29 2:30.34 3:433 4:816 5:0.004466445 
9 1:20.29 2:30.4725 3:433 4:822.75 5:0.004486091 
9 1:20.29 2:30.533333 3:433 4:843.66667 5:0.004495112 
9 1:20.29 2:30.495 3:433 4:850.5 5:0.004489428 
9 1:20.39 2:30.7 3:433 4:850 5:0.004548042 
9 1:20.381667 2:30.705833 3:433 4:856.7 5:0.004546555 
9 1:20.373333 2:30.711667 3:433 4:863.4 5:0.004545068 
9 1:20.39 2:30.84 3:433 4:886 5:0.004568935 
9 1:20.39 2:30.695 3:433 4:889 5:0.004547296 
9 1:20.39 2:30.795 3:433 4:898 5:0.004562219 
9 1:20.39 2:30.77 3:433 4:902.5 5:0.004558488 
9 1:20.39 2:30.8925 3:433 4:909.25 5:0.00457677 
9 1:20.445 2:30.795 3:433 4:922 5:0.004577853 
9 1:20.4725 2:30.9175 3:433 4:921.5 5:0.004604064 
9 1:20.5 2:31.1225 3:433 4:929.25 5:0.00464275 
9 1:20.5 2:31.1 3:447 4:953 5:0.004639369 
9 1:20.5 2:31.1 3:437.66667 4:954 5:0.004639369 
9 1:20.5 2:30.9725 3:442.5 4:950.75 5:0.004620207 
9 1:20.5 2:31.1475 3:447 4:959.75 5:0.004646507 
9 1:20.5 2:31.245 3:440 4:967.75 5:0.004661161 
9 1:20.5 2:31.26 3:442.33333 4:974.33333 5:0.004663416 
9 1:20.5 2:31.1 3:447 4:977 5:0.004639369 
9 1:20.5 2:31.163333 3:441 4:970.33333 5:0.004648887 
9 1:20.5 2:31.2225 3:442.5 4:968 5:0.004657779 
9 1:20.55 2:31.245 3:438 4:975.5 5:0.00467567 
9 1:20.55 2:31.245 3:447 4:981.5 5:0.00467567 
9 1:20.6 2:31.245 3:438 4:1007 5:0.004690218 
9 1:20.6 2:31.2675 3:438 4:1016 5:0.004693621 
9 1:20.6 2:31.295 3:438 4:1019.5 5:0.004697781 
9 1:20.675 2:31.4725 3:438 4:1041.5 5:0.004746688 
9 1:21.5 2:33.2225 3:31 4:1246 5:0.00527554 
9 1:21.15 2:32.845 3:365.75 4:1121 5:0.005103459 
9 1:22.1 2:37.79 3:209.5 4:1788.5 5:0.006234387 
9 1:20.323333 2:33.23 3:419 4:456.66667 5:0.004905413 
9 1:20.323333 2:33.26 3:433 4:463 5:0.004909876 
9 1:20.365 2:33.4975 3:419 4:482.5 5:0.004958063 
9 1:20.39 2:33.5 3:419 4:484.5 5:0.004966159 
9 1:20.39 2:33.5 3:419 4:490.33333 5:0.004966159 
9 1:20.39 2:33.5 3:409.66667 4:489.66667 5:0.004966159 
9 1:20.4175 2:33.5225 3:405 4:487.25 5:0.004978035 
9 1:20.426667 2:33.56 3:405 4:494.33333 5:0.004986493 
9 1:20.4175 2:33.5675 3:408 4:499 5:0.004984771 
9 1:20.463333 2:33.663333 3:413 4:499 5:0.005013396 
9 1:20.5 2:33.6725 3:404.5 4:494.5 5:0.005026224 
9 1:20.5 2:33.7225 3:407.5 4:495.5 5:0.005033748 
9 1:20.5 2:33.79 3:405 4:495.5 5:0.005043906 
9 1:20.5 2:33.79 3:408 4:502.5 5:0.005043906 
9 1:20.5 2:33.79 3:405 4:506.66667 5:0.005043906 
9 1:20.55 2:33.79 3:405 4:508 5:0.005059615 
9 1:20.6 2:33.863333 3:405 4:509.5 5:0.005086473 
9 1:20.575 2:33.925 3:405 4:516 5:0.005087898 
9 1:20.6 2:33.8725 3:412 4:521.25 5:0.005087861 
9 1:20.6 2:33.895 3:419 4:525.75 5:0.005091269 
9 1:20.65 2:33.975 3:419 4:524.5 5:0.005119268 
9 1:20.675 2:33.975 3:419 4:527.75 5:0.005127226 
9 1:20.65 2:33.975 3:419 4:534.5 5:0.005119268 
9 1:20.65 2:34.145 3:419 4:532 5:0.005145095 
9 1:20.7 2:34.4175 3:419 4:568.75 5:0.005202637 
9 1:20.7 2:34.09 3:419 4:556.66667 5:0.005152722 
9 1:20.7 2:34.296667 3:419 4:548 5:0.00518422 
9 1:20.73 2:34.466667 3:419 4:563.33333 5:0.00521985 
9 1:20.745 2:34.5675 3:426 4:593.75 5:0.00524013 
9 1:20.7675 2:34.7175 3:422.5 4:600.75 5:0.00527042 
9 1:20.79 2:35.09 3:426 4:623 5:0.005334902 
9 1:20.79 2:34.9725 3:433 4:631 5:0.005316886 
9 1:20.79 2:34.826667 3:433 4:636 5:0.005294526 
9 1:20.84 2:35.195 3:433 4:636.75 5:0.005367641 
9 1:20.89 2:35.3 3:433 4:663 5:0.005400526 
9 1:20.856667 2:35.096667 3:433 4:665.33333 5:0.005358055 
9 1:20.89 2:35.32 3:433 4:669.5 5:0.005403613 
9 1:20.9175 2:35.475 3:433 4:679.25 5:0.005436802 
9 1:20.89 2:35.4 3:433 4:684.66667 5:0.005415958 
9 1:20.9175 2:35.7175 3:433 4:706.25 5:0.005474294 
9 1:20.95875 2:35.68375 3:433 4:712.625 5:0.00548309 
9 1:21 2:35.65 3:433 4:719 5:0.005491891 
9 1:21 2:35.7 3:433 4:730.25 5:0.005499661 
9 1:21 2:35.76 3:433 4:739 5:0.005508986 
9 1:21 2:35.85 3:433 4:756.25 5:0.005522974 
9 1:21 2:35.7 3:433 4:761 5:0.005499661 
9 1:21.025 2:35.95 3:433 4:763 5:0.00554711 
9 1:21 2:35.86 3:433 4:771.33333 5:0.005524528 
9 1:21.05 2:36.05 3:433 4:780.25 5:0.005571307 
9 1:21.05 2:36.0975 3:433 4:787.25 5:0.005578714 
9 1:21.05 2:35.995 3:433 4:789.5 5:0.005562731 
9 1:21.1 2:36.095 3:433 4:798.5 5:0.005595639 
9 1:21.1 2:36.26 3:433 4:820.33333 5:0.005621449 
9 1:21.1 2:36.2 3:447 4:821 5:0.005612064 
9 1:23.754 2:26.35 3:476 4:803.2 5:0.004794094 
9 1:23.7 2:26.6 3:475.25 4:832 5:0.004824104 
9 1:23.7 2:26.7 3:469 4:845.33333 5:0.004842381 
9 1:23.7 2:26.774 3:464 4:852.4 5:0.004855906 
9 1:23.7 2:26.89 3:464 4:861 5:0.00487711 
9 1:23.7 2:26.9725 3:455 4:880 5:0.004892191 
9 1:23.6 2:26.89 3:454 4:891 5:0.004847594 
9 1:23.64 2:26.976 3:458 4:897.6 5:0.004875045 
9 1:23.65 2:27.05 3:464 4:900.5 5:0.004891492 
9 1:23.02 2:27.556 3:435 4:1042.6 5:0.004796284 
9 1:23.01 2:27.818833 3:432 4:1051.1 5:0.004839435 
9 1:23 2:28.081667 3:429 4:1059.6 5:0.004882538 
9 1:23 2:27.956 3:429 4:1064.6 5:0.004860518 
9 1:22.981667 2:27.908333 3:429 4:1061.6667 5:0.004846741 
9 1:23 2:27.926667 3:429 4:1058.3333 5:0.004855378 
9 1:23 2:28.018 3:429 4:1061.6 5:0.004871382 
9 1:22.981667 2:28.066667 3:429 4:1070.3333 5:0.004874454 
9 1:22.945 2:28.1 3:429 4:1074 5:0.004869381 
9 1:23 2:28.1 3:429 4:1086.25 5:0.004885751 
9 1:22.956 2:28.2 3:429 4:1089.6 5:0.004890128 
9 1:22.9725 2:28.1 3:429 4:1085 5:0.00487756 
9 1:22.945 2:28.133333 3:429 4:1085 5:0.004875203 
9 1:23 2:28.2 3:429 4:1088 5:0.004903275 
9 1:22.945 2:28.2 3:429 4:1091.75 5:0.004886846 
9 1:23 2:28.133333 3:429 4:1091.3333 5:0.004891592 
9 1:22.912 2:28.1 3:429 4:1088.2 5:0.004859583 
9 1:22.89 2:28.1 3:429 4:1087.5 5:0.00485306 
9 1:22.89 2:27.956 3:432 4:1079.2 5:0.004827998 
9 1:22.873333 2:27.6 3:429 4:1056.4 5:0.004761198 
9 1:22.89 2:27.6 3:432.75 4:1043.6 5:0.004766045 
9 1:22.815 2:27.445 3:432.75 4:1039.5 5:0.004717422 
9 1:22.84 2:27.373333 3:436.5 4:1028.6667 5:0.0047122 
9 1:22.79 2:27.365 3:438 4:1020.4 5:0.00469639 
9 1:22.79 2:27.171429 3:435.42857 4:1015.1429 5:0.004662921 
9 1:22.79 2:27.066667 3:434 4:1006.3333 5:0.004644808 
9 1:22.79 2:27.02 3:432 4:1002.6 5:0.00463674 
9 1:22.772 2:26.934 3:438 4:993.2 5:0.004616793 
9 1:22.76 2:26.823333 3:439 4:983.33333 5:0.004594315 
9 1:22.7 2:26.754 3:432 4:976.2 5:0.004565583 
9 1:22.7225 2:26.7 3:432.75 4:980.75 5:0.004562569 
9 1:22.7 2:26.683333 3:434 4:971.33333 5:0.004553435 
9 1:22.7 2:26.533333 3:444 4:966.66667 5:0.004527652 
9 1:22.7 2:26.463333 3:444 4:963 5:0.00451562 
9 1:22.7 2:26.445 3:441.5 4:952.33333 5:0.004512469 
9 1:22.7 2:26.34 3:444 4:948 5:0.004494423 
9 1:22.7 2:26.26 3:444 4:945 5:0.004480674 
9 1:22.7 2:26.2 3:441 4:941.6 5:0.004470363 
9 1:22.7 2:26.16 3:438 4:929.8 5:0.004463489 
9 1:22.7 2:26.02 3:441 4:923.8 5:0.004439431 
9 1:22.7 2:26.1 3:440.25 4:919 5:0.004453178 
9 1:22.7 2:26 3:439 4:918.25 5:0.004435995 
9 1:22.7 2:25.934 3:438 4:919.4 5:0.004424654 
9 1:22.7 2:25.926667 3:439 4:927.33333 5:0.004423394 
9 1:22.7 2:25.815 3:432.75 4:920.25 5:0.004404207 
9 1:22.68 2:25.772 3:432 4:902.4 5:0.004391449 
9 1:22.64 2:25.696 3:429 4:904.4 5:0.004367718 
9 1:22.6 2:25.575 3:429 4:897 5:0.00433639 
9 1:22.666667 2:25.6 3:429 4:892 5:0.004358383 
9 1:22.6 2:25.525 3:433.5 4:882.5 5:0.004327853 
9 1:22.62 2:25.476 3:436.2 4:887.2 5:0.004324772 
9 1:22.625 2:25.55 3:442.5 4:889.25 5:0.004338748 
9 1:22.6 2:25.39 3:443.4 4:889.2 5:0.004304805 
9 1:22.65 2:25.42 3:438 4:880.75 5:0.00432312 
9 1:22.6 2:25.2675 3:442.5 4:868.75 5:0.004283893 
9 1:22.6 2:25.218 3:439.8 4:861 5:0.004275443 
9 1:22.6 2:25.2 3:439.8 4:860.6 5:0.00427237 
9 1:22.6 2:25.2 3:435.5 4:864 5:0.00427237 
9 1:22.6 2:25.15 3:430.75 4:859 5:0.004263835 
9 1:22.6 2:25.14 3:440.6 4:854.4 5:0.004262128 
9 1:22.6 2:25.15 3:428.2 4:847.4 5:0.004263835 
9 1:22.6 2:25.04 3:432.2 4:837.2 5:0.004245059 
9 1:22.6 2:25.05 3:431.75 4:834.75 5:0.004246766 
9 1:22.6 2:25.06 3:429.2 4:832.4 5:0.004248472 
9 1:22.6 2:25 3:433 4:832 5:0.004238231 
9 1:22.6 2:25 3:433 4:836.25 5:0.004238231 
9 1:22.6 2:25 3:428.2 4:832.6 5:0.004238231 
9 1:22.6 2:25.025 3:428.25 4:821.5 5:0.004242498 
9 1:22.6 2:25.1 3:425.4 4:832.4 5:0.0042553 
9 1:22.6 2:25.08 3:429.2 4:832.4 5:0.004251886 
9 1:22.56 2:25.02 3:433 4:830.75 5:0.004231284 
9 1:22.58 2:25.08 3:433 4:821.5 5:0.00424669 
9 1:22.575 2:25.075 3:433 4:818.25 5:0.00424454 
9 1:22.56 2:24.912 3:433 4:819.8 5:0.004212896 
9 1:22.55 2:25.2 3:433 4:822.5 5:0.004259328 
9 1:22.6 2:24.9175 3:433 4:818 5:0.00422415 
9 1:22.58 2:25.06 3:433 4:812.8 5:0.004243281 
9 1:22.566667 2:24.908333 3:433 4:816.5 5:0.004213989 
9 1:22.525 2:24.945 3:433 4:822.25 5:0.004209495 
9 1:22.54 2:24.89 3:433 4:825 5:0.004204006 
9 1:22.5 2:24.865 3:433 4:816.5 5:0.004189492 
9 1:22.5 2:24.9175 3:433 4:811.5 5:0.004198397 
9 1:22.5 2:24.911667 3:433 4:811 5:0.004197408 
9 1:22.56 2:24.81 3:433 4:812.2 5:0.00419553 
9 1:22.525 2:24.89 3:426 4:814.25 5:0.004200151 
9 1:22.52 2:24.976 3:430.2 4:824 5:0.004213473 
9 1:22.575 2:25.075 3:433 4:834.5 5:0.00424454 
9 1:22.6 2:25 3:433 4:837 5:0.004238231 
9 1:22.6 2:25.021429 3:433 4:841.16667 5:0.004241889 
9 1:22.6 2:25.042857 3:433 4:845.33333 5:0.004245546 
9 1:22.6 2:25.1 3:433 4:854.75 5:0.0042553 
9 1:22.6 2:25.1 3:428.33333 4:850.33333 5:0.0042553 
9 1:22.6 2:25.08 3:424.6 4:845.4 5:0.004251886 
9 1:22.6 2:25.166667 3:433 4:854.33333 5:0.00426668 
9 1:22.39 2:24.7225 3:419 4:772.25 5:0.004137377 
9 1:22.39 2:24.717083 3:419 4:772.925 5:0.004136464 
9 1:22.39 2:24.711667 3:419 4:773.6 5:0.004135552 
9 1:22.39 2:24.625 3:419 4:773.75 5:0.004120952 
9 1:22.39 2:24.754 3:416.2 4:771.8 5:0.004142684 
9 1:22.39 2:24.912 3:418.6 4:782.8 5:0.004169303 
9 1:22.39 2:25.245 3:415 4:796.5 5:0.004225413 
9 1:22.39 2:25.0925 3:310.25 4:809 5:0.004199716 
9 1:20.29 2:22.79 3:217.2 4:441.6 5:0.003349002 
9 1:20.29 2:22.856667 3:413.66667 4:442.66667 5:0.003358851 
9 1:20.29 2:22.956 3:433 4:445.6 5:0.003373528 
9 1:20.31 2:23.2 3:415 4:470.8 5:0.003413822 
9 1:20.33 2:23.2 3:412.2 4:476.6 5:0.003418066 
9 1:20.39 2:23.2 3:412.2 4:473 5:0.003430829 
9 1:20.365 2:23.245 3:413.5 4:473 5:0.003432187 
9 1:20.39 2:23.34 3:403.5 4:479.75 5:0.003451647 
9 1:20.39 2:23.434 3:397.4 4:494.2 5:0.003465625 
9 1:20.39 2:23.5 3:399.5 4:498.75 5:0.003475441 
9 1:20.39 2:23.66 3:397.4 4:501 5:0.003499236 
9 1:20.39 2:23.7 3:398.33333 4:507 5:0.003505185 
9 1:20.39 2:23.7 3:399.5 4:518 5:0.003505185 
9 1:20.445 2:23.8175 3:403 4:520 5:0.003534713 
9 1:20.5 2:23.89 3:407.66667 4:523.66667 5:0.003557659 
9 1:20.5 2:23.978 3:412.2 4:525.2 5:0.003570839 
9 1:20.5 2:24.033333 3:413 4:531.33333 5:0.003579127 
9 1:20.5 2:24.1 3:414 4:538 5:0.003589112 
9 1:20.5 2:24.1 3:412.2 4:536.4 5:0.003589112 
9 1:20.5 2:24.1 3:413 4:538.33333 5:0.003589112 
9 1:20.5 2:24.18 3:412.2 4:541 5:0.003601095 
9 1:20.52 2:24.236 3:407.4 4:549.6 5:0.003613966 
9 1:20.5 2:24.323333 3:407 4:555.16667 5:0.003622566 
9 1:20.5 2:24.39 3:405 4:561.5 5:0.003632553 
9 1:20.5 2:24.39 3:405 4:569 5:0.003632553 
9 1:20.56 2:24.39 3:405 4:568.2 5:0.003646103 
9 1:20.55 2:24.39 3:412 4:572 5:0.003643841 
9 1:20.55 2:24.39 3:416.66667 4:573.16667 5:0.003643841 
9 1:20.58 2:24.39 3:419 4:583 5:0.003650629 
9 1:20.6 2:24.39 3:419 4:585 5:0.003655161 
9 1:20.666667 2:24.39 3:419 4:584.66667 5:0.003670301 
9 1:20.7 2:24.37 3:419 4:584.8 5:0.003674858 
9 1:20.7 2:24.39 3:419 4:591.4 5:0.003677892 
9 1:20.7 2:24.39 3:419 4:594.33333 5:0.003677892 
9 1:20.7 2:24.39 3:419 4:600.5 5:0.003677892 
9 1:20.736 2:24.39 3:419 4:601.4 5:0.003686106 
9 1:20.73 2:24.39 3:419 4:606 5:0.003684736 
9 1:20.7 2:24.5 3:419 4:608.75 5:0.003694578 
9 1:20.754 2:24.5 3:419 4:616.8 5:0.003706961 
9 1:20.79 2:24.5 3:419 4:624.2 5:0.003715237 
9 1:20.772 2:24.52 3:419 4:625.6 5:0.003714144 
9 1:20.7675 2:24.6 3:419 4:628.75 5:0.003725296 
9 1:20.754 2:24.66 3:419 4:635.2 5:0.003731315 
9 1:20.772 2:24.7 3:419 4:640.8 5:0.003741574 
9 1:20.79 2:24.7 3:421.8 4:642.4 5:0.003745748 
9 1:20.79 2:24.7 3:422.5 4:643.25 5:0.003745748 
9 1:20.79 2:24.736 3:427.4 4:643.6 5:0.00375124 
9 1:20.79 2:24.79 3:433 4:645.25 5:0.003759479 
9 1:20.775 2:24.79 3:433 4:652.66667 5:0.003755987 
9 1:20.79 2:24.79 3:433 4:658 5:0.003759479 
9 1:20.79 2:24.79 3:433 4:665.5 5:0.003759479 
9 1:20.79 2:24.79 3:433 4:666.33333 5:0.003759479 
9 1:20.79 2:24.79 3:433 4:666.5 5:0.003759479 
9 1:20.79 2:24.79 3:433 4:668.2 5:0.003759479 
9 1:20.79 2:24.79 3:433 4:668 5:0.003759479 
9 1:20.79 2:24.79 3:433 4:672.66667 5:0.003759479 
9 1:20.79 2:24.79 3:433 4:672.75 5:0.003759479 
9 1:20.79 2:24.79 3:433 4:679.2 5:0.003759479 
9 1:20.815 2:24.815 3:433 4:683.5 5:0.003769124 
9 1:20.79 2:24.79 3:440 4:688.5 5:0.003759479 
9 1:20.84 2:24.84 3:434.5 4:686 5:0.00377879 
9 1:20.79 2:24.79 3:435.5 4:689.75 5:0.003759479 
9 1:20.89 2:24.89 3:443.4 4:700 5:0.003798181 
9 1:20.83 2:24.83 3:439.8 4:697.6 5:0.003774921 
9 1:20.87 2:24.87 3:439.8 4:695.8 5:0.003790415 
9 1:20.89 2:24.873333 3:441 4:697.33333 5:0.003795622 
9 1:20.89 2:24.89 3:442.5 4:701.25 5:0.003798181 
9 1:20.873333 2:24.84 3:441 4:700.66667 5:0.003786596 
9 1:20.873333 2:24.775 3:441 4:694.83333 5:0.003776628 
9 1:20.89 2:24.84 3:442.5 4:709.75 5:0.003790505 
9 1:20.89 2:24.856667 3:435 4:715 5:0.003793064 
9 1:20.89 2:24.823333 3:435 4:715.83333 5:0.003787946 
9 1:20.89 2:24.79 3:429 4:713.8 5:0.003782829 
9 1:20.926667 2:24.79 3:429 4:709 5:0.003791422 
9 1:20.89 2:24.85 3:429 4:716.2 5:0.00379204 
9 1:20.89 2:24.89 3:429 4:716.16667 5:0.003798181 
9 1:20.89 2:24.945 3:432.75 4:725 5:0.003806626 
9 1:20.89 2:24.9175 3:429 4:725 5:0.003802403 
9 1:20.89 2:24.978 3:435 4:727.6 5:0.003811692 
9 1:20.89 2:25 3:435 4:729.4 5:0.00381507 
9 1:20.89 2:25 3:441 4:730.8 5:0.00381507 
9 1:20.89 2:25 3:438 4:731.2 5:0.00381507 
9 1:20.9175 2:25 3:444 4:736.25 5:0.003821569 
9 1:20.978 2:25 3:441 4:741 5:0.003835901 
9 1:21 2:24.963333 3:444 4:742.33333 5:0.003835456 
9 1:21 2:24.912 3:444 4:742.4 5:0.00382752 
9 1:21.025 2:24.89 3:444 4:746.75 5:0.003830036 
9 1:21.075 2:24.89 3:444 4:745 5:0.003841893 
9 1:21.1 2:24.89 3:444 4:742 5:0.003847834 
9 1:21.1 2:24.89 3:444 4:740.8 5:0.003847834 
9 1:21.2 2:25.163333 3:444 4:752.66667 5:0.003914464 
9 1:21.175 2:25.040417 3:446.66667 4:751.5 5:0.003889213 
9 1:21.15 2:24.9175 3:449.33333 4:750.33333 5:0.003864032 
9 1:21.183333 2:25.198333 3:454.66667 4:754.33333 5:0.00391591 
9 1:21.2 2:25.34 3:448 4:765.75 5:0.003942121 
9 1:21.2 2:25.3925 3:454.75 4:782 5:0.00395034 
9 1:21.23 2:25.445 3:453 4:786.66667 5:0.003965901 
9 1:21.254 2:25.578 3:451.6 4:792 5:0.003992676 
9 1:21.2 2:25.763333 3:453 4:800.33333 5:0.004008403 
9 1:21.2 2:25.89 3:454.75 4:804.33333 5:0.004028238 
9 1:21.2 2:26.05 3:449.5 4:815.2 5:0.004053295 
9 1:21.2 2:26.1 3:460 4:829.75 5:0.004061126 
9 1:21.2 2:26.157143 3:442 4:837.16667 5:0.004070075 
9 1:21.2 2:26.245 3:439 4:849 5:0.004083836 
9 1:21.2 2:26.29 3:439 4:853.5 5:0.004090884 
9 1:21.218 2:26.31 3:439 4:863.4 5:0.004098571 
9 1:21.236 2:26.412 3:442 4:864.4 5:0.004119143 
9 1:21.23 2:26.498333 3:449 4:871.83333 5:0.004131165 
9 1:21.2225 2:26.525 3:454 4:872.25 5:0.004133435 
9 1:21.245 2:26.583333 3:454 4:876.66667 5:0.004148347 
9 1:21.26 2:26.566667 3:454 4:890.33333 5:0.004149571 
9 1:21.29 2:26.683333 3:454 4:895.16667 5:0.004175644 
9 1:21.29 2:26.76 3:454 4:901 5:0.004187722 
9 1:21.29 2:26.79 3:454 4:910.25 5:0.004192449 
9 1:21.315 2:26.7675 3:454 4:918.5 5:0.004195374 
9 1:21.306667 2:26.79 3:454 4:923.16667 5:0.004196765 
9 1:21.31 2:26.79 3:454 4:926.75 5:0.004197629 
9 1:21.356667 2:26.79 3:454 4:925.5 5:0.004209738 
9 1:21.29 2:26.89 3:457.75 4:935 5:0.004208204 
9 1:20.39 2:23.7 3:311.75 4:474.75 5:0.003505185 
9 1:20.4175 2:23.7225 3:426 4:473.5 5:0.003514529 
9 1:20.4725 2:23.7675 3:433 4:473.75 5:0.003533277 
9 1:20.481667 2:23.89 3:423.66667 4:484.5 5:0.003553613 
9 1:20.5 2:23.89 3:419 4:492.4 5:0.003557659 
9 1:20.5 2:23.89 3:419 4:491 5:0.003557659 
9 1:20.5 2:23.89 3:419 4:487.2 5:0.003557659 
9 1:20.55 2:23.945 3:415.5 4:493.25 5:0.003576976 
9 1:20.52 2:24 3:409.8 4:499.6 5:0.003578573 
9 1:20.525 2:24 3:414.6 4:506.2 5:0.003579683 
9 1:20.633333 2:24.23 3:398.33333 4:537.33333 5:0.003638556 
9 1:20.66 2:24.2 3:406.2 4:538.8 5:0.003640037 
9 1:20.625 2:24.175 3:414 4:538.5 5:0.003628373 
9 1:20.66 2:24.216 3:412.2 4:535.8 5:0.003642458 
9 1:20.675 2:24.34 3:411 4:538.75 5:0.003664625 
9 1:20.7 2:24.5 3:408 4:546.25 5:0.003694578 
9 1:20.7 2:24.65 3:405 4:554.66667 5:0.003717333 
9 1:20.7 2:24.7 3:405 4:565.33333 5:0.003724918 
9 1:20.7 2:24.7675 3:405 4:573 5:0.003735159 
9 1:20.712857 2:24.79 3:405 4:581.14286 5:0.003741553 
9 1:20.7 2:24.79 3:405 4:587.25 5:0.003738573 
9 1:20.754 2:24.87 3:413.4 4:588.2 5:0.003763282 
9 1:20.775 2:24.89 3:416.66667 4:589.5 5:0.00377123 
9 1:20.772 2:24.956 3:419 4:592 5:0.003780588 
9 1:20.79 2:24.978 3:419 4:599.8 5:0.003788163 
9 1:20.79 2:25 3:419 4:605.4 5:0.00379152 
9 1:20.79 2:24.9975 3:419 4:611.25 5:0.003791139 
9 1:20.81 2:25.02 3:419 4:616.4 5:0.003799275 
9 1:20.865 2:25.075 3:419 4:621 5:0.003820668 
9 1:20.823333 2:25.033333 3:419 4:622.66667 5:0.003804453 
9 1:20.856667 2:25.066667 3:419 4:624 5:0.003817421 
9 1:20.84 2:25.05 3:419 4:623.75 5:0.003810932 
9 1:20.87 2:25.16 3:433 4:632.4 5:0.003834886 
9 1:20.89 2:25.2 3:433 4:639 5:0.003845779 
9 1:20.873333 2:25.275 3:433 4:646 5:0.003853318 
9 1:20.84 2:25.1975 3:433 4:649.5 5:0.00383351 
9 1:20.89 2:25.272 3:433 4:649.8 5:0.003856835 
9 1:20.865 2:25.365 3:433 4:656.75 5:0.00386513 
9 1:20.84 2:25.34 3:433 4:660.75 5:0.003855324 
9 1:20.873333 2:25.373333 3:437.66667 4:659.33333 5:0.003868403 
9 1:20.87 2:25.37 3:440.6 4:671.6 5:0.003867094 
9 1:20.84 2:25.34 3:442.5 4:673.5 5:0.003855324 
9 1:20.865 2:25.365 3:438 4:678.25 5:0.00386513 
9 1:20.89 2:25.39 3:441 4:681 5:0.003874956 
9 1:20.89 2:25.35 3:429 4:683 5:0.003868813 
9 1:20.89 2:25.33 3:429 4:689.4 5:0.003865742 
9 1:20.89 2:25.34 3:429 4:694.25 5:0.003867278 
9 1:20.912 2:25.39 3:435 4:690.4 5:0.003880236 
9 1:20.945 2:25.39 3:444 4:697.33333 5:0.003888169 
9 1:20.9725 2:25.39 3:444 4:710.25 5:0.00389479 
9 1:21 2:25.245 3:460 4:714.5 5:0.003879002 
9 1:21 2:25.2 3:454.75 4:711 5:0.003872044 
9 1:21 2:25.2 3:453 4:705 5:0.003872044 
9 1:21 2:25.2 3:451.6 4:711 5:0.003872044 
9 1:21.025 2:25.2225 3:454.75 4:713.5 5:0.00388152 
9 1:21.083333 2:25.2 3:453 4:719.5 5:0.003892047 
9 1:21.066667 2:25.2 3:458 4:727.66667 5:0.003888039 
9 1:21.116667 2:25.2 3:458 4:728.66667 5:0.003900074 
9 1:21.15 2:25.2225 3:459.25 4:731.25 5:0.003911626 
9 1:21.2 2:25.228333 3:454 4:738.5 5:0.00392464 
9 1:21.2 2:25.18 3:454 4:740.2 5:0.003917073 
9 1:21.2 2:25.1 3:454 4:735.75 5:0.00390455 
9 1:21.2 2:25.14 3:454 4:735 5:0.003910812 
9 1:21.215 2:25.215 3:456.5 4:746.16667 5:0.003926188 
9 1:21.2 2:25.2 3:465.25 4:762.75 5:0.003920204 
9 1:21.2 2:25.2 3:469 4:766.2 5:0.003920204 
9 1:21.2 2:25.218 3:469 4:763.4 5:0.003923022 
9 1:21.2 2:25.356667 3:462.33333 4:778 5:0.00394473 
9 1:21.2 2:25.37 3:470.2 4:778.4 5:0.003946818 
9 1:21.2225 2:25.34 3:475.75 4:774.75 5:0.003947603 
9 1:21.236 2:25.33 3:471 4:774 5:0.003949326 
9 1:21.29 2:25.4725 3:480.25 4:778 5:0.003984948 
9 1:21.29 2:25.426667 3:487 4:779 5:0.003977732 
-9 1:20.7 2:22.4175 3:426 4:460.25 5:0.003378833 
-9 1:20.7 2:22.5 3:423.66667 4:465.33333 5:0.003391335 
-9 1:20.7 2:22.463333 3:423.66667 4:472.66667 5:0.003385779 
-9 1:21.29 2:23.89 3:422.5 4:650.5 5:0.003735893 
-9 1:22.1 2:26.633333 3:459 4:1044 5:0.004380858 
-9 1:22.1 2:26.6 3:459 4:1036.5 5:0.004375336 
-9 1:22.05 2:26.575 3:469 4:1039 5:0.004357799 
-9 1:22.05 2:26.55 3:469 4:1039 5:0.00435367 
-9 1:22.7 2:26.89 3:531.25 4:1120 5:0.004588962 
-9 1:22.7 2:26.89 3:539 4:1113.6667 5:0.004588962 
-9 1:22.7 2:26.89 3:545.75 4:1104.75 5:0.004588962 
-9 1:22.675 2:26.865 3:604.75 4:1103.25 5:0.004577664 
-9 1:22.7 2:26.815 3:597.25 4:1102.75 5:0.004576069 
-9 1:22.7 2:26.7 3:528 4:1090 5:0.0045563 
-9 1:22.7 2:26.7 3:521 4:1086.25 5:0.0045563 
-9 1:22.7 2:26.666667 3:535.66667 4:1083.6667 5:0.00455057 
-9 1:22.675 2:26.575 3:533.25 4:1078.5 5:0.00452789 
-9 1:22.65 2:26.55 3:523.75 4:1064.75 5:0.004516692 
-9 1:22.666667 2:26.566667 3:524 4:1053 5:0.004524155 
-9 1:22.76 2:26.39 3:635.5 4:1022 5:0.004519554 
-9 1:22.856667 2:26.323333 3:676 4:1024.75 5:0.004534741 
-9 1:22.89 2:26.245 3:567.25 4:1020 5:0.004530356 
-9 1:22.89 2:26.2 3:582.5 4:1015.5 5:0.004522532 
-9 1:22.89 2:26.1 3:618.75 4:1007 5:0.004505145 
-9 1:22.89 2:26.175 3:579.25 4:997.5 5:0.004518185 
-9 1:22.89 2:26.133333 3:590.33333 4:1002 5:0.00451094 
-9 1:22.89 2:26.1 3:584.5 4:1000 5:0.004505145 
-9 1:22.89 2:26 3:564 4:997.75 5:0.004487759 
-9 1:22.79 2:25.865 3:38.75 4:979 5:0.004437124 
-9 1:22.79 2:25.823333 3:31 4:977 5:0.004429925 
-9 1:22.79 2:25.9725 3:26.75 4:961.5 5:0.004455697 
-9 1:22.745 2:26 3:22 4:963.25 5:0.004448207 
-9 1:22.7 2:26 3:13 4:974 5:0.004435995 
-9 1:22.7 2:26.075 3:31 4:965.25 5:0.004448882 
-9 1:22.666667 2:26.066667 3:32.666667 4:962.33333 5:0.0044384 
-9 1:22.6 2:26.05 3:33.5 4:957 5:0.004417501 
-9 1:22.6 2:26.1 3:28 4:949.5 5:0.00442604 
-9 1:22.566667 2:26.1 3:31 4:950.33333 5:0.004417027 
-9 1:22.525 2:26.1 3:33.5 4:949.5 5:0.004405783 
-9 1:22.5 2:26.1 3:31 4:948.75 5:0.004399048 
-9 1:22.5 2:26.1 3:31 4:944 5:0.004399048 
-9 1:22.4175 2:26.05 3:33.5 4:934.5 5:0.004368445 
-9 1:22.39 2:26.1 3:33.5 4:931.75 5:0.004369525 
-9 1:22.39 2:26.1 3:28.666667 4:928.66667 5:0.004369525 
-9 1:22.39 2:26.1 3:46 4:930.5 5:0.004369525 
-9 1:22.39 2:26.1 3:53 4:923.25 5:0.004369525 
-9 1:22.39 2:26.1 3:71.5 4:921 5:0.004369525 
-9 1:22.34 2:26.1 3:103 4:916.5 5:0.004356163 
-9 1:22.323333 2:26.1 3:91.666667 4:912.33333 5:0.004351717 
-9 1:22.29 2:26.1 3:90 4:902.25 5:0.004342837 
-9 1:22.29 2:26.1 3:81.666667 4:903 5:0.004342837 
-9 1:22.29 2:26.1 3:112.75 4:898.5 5:0.004342837 
-9 1:22.29 2:26.1 3:503.5 4:892.5 5:0.004342837 
-9 1:22.2675 2:26.1725 3:567.5 4:883.5 5:0.004348983 
-9 1:22.29 2:26.29 3:569.25 4:879.25 5:0.004374674 
-9 1:22.29 2:26.26 3:490.66667 4:887.33333 5:0.004369647 
-9 1:22.29 2:26.2 3:487.33333 4:890 5:0.004359593 
-9 1:22.29 2:26.2 3:500 4:891.25 5:0.004359593 
-9 1:22.29 2:26.2 3:524 4:891 5:0.004359593 
-9 1:22.29 2:26.175 3:545.33333 4:881 5:0.004355404 
-9 1:22.315 2:26.1 3:520.6 4:866.25 5:0.004349495 
-9 1:22.29 2:26.1 3:509 4:864.66667 5:0.004342837 
-9 1:22.34 2:26.1 3:476.5 4:870 5:0.004356163 
-9 1:22.315 2:26.1 3:471.5 4:862 5:0.004349495 
-9 1:22.29 2:26.1 3:464 4:857.5 5:0.004342837 
-9 1:22.29 2:26.1 3:464 4:851.33333 5:0.004342837 
-9 1:22.29 2:26.1 3:459 4:846.75 5:0.004342837 
-9 1:22.29 2:26.1 3:459 4:844.66667 5:0.004342837 
-9 1:22.29 2:26.1 3:454.75 4:843 5:0.004342837 
-9 1:22.29 2:26.1 3:444 4:840.5 5:0.004342837 
-9 1:22.29 2:26.025 3:456 4:831.25 5:0.004330271 
-9 1:22.29 2:26 3:461 4:829 5:0.004326082 
-9 1:22.29 2:26 3:461.5 4:825.5 5:0.004326082 
-9 1:22.29 2:26 3:464 4:813.66667 5:0.004326082 
-9 1:22.29 2:26 3:476.5 4:819 5:0.004326082 
-9 1:22.29 2:26 3:489 4:819.5 5:0.004326082 
-9 1:22.29 2:25.945 3:489 4:810 5:0.004316867 
-9 1:22.2675 2:25.89 3:451 4:795 5:0.004301716 
-9 1:22.2675 2:25.89 3:449.5 4:785 5:0.004301716 
-9 1:22.2675 2:25.9175 3:449.5 4:795 5:0.004306317 
-9 1:22.29 2:25.926667 3:453 4:795.25 5:0.004313796 
-9 1:22.245 2:25.89 3:451.75 4:797.5 5:0.004295788 
-9 1:22.29 2:25.89 3:459 4:797 5:0.004307653 
-9 1:22.2675 2:25.89 3:459 4:795.5 5:0.004301716 
-9 1:22.2675 2:25.865 3:464 4:784.5 5:0.004297534 
-9 1:22.29 2:25.89 3:454 4:775.5 5:0.004307653 
-9 1:22.23 2:25.823333 3:454 4:777.33333 5:0.004280711 
-9 1:22.2225 2:25.8925 3:448 4:775.5 5:0.004290283 
-9 1:22 2:24.1 4:844 5:0.003937268 
-9 1:22 2:24.1 4:846.66667 5:0.003937268 
-9 1:22 2:24.1 4:852 5:0.003937268 
-9 1:21.945 2:23.795 4:851 5:0.003874025 
-9 1:20.2 2:18.6 3:260.33333 4:434 5:0.002715358 
-9 1:20.175 2:18.6 3:433 4:437.5 5:0.002711144 
-9 1:20.175 2:18.675 3:422.5 4:440.75 5:0.002722124 
-9 1:20.2 2:18.7 3:419 4:442 5:0.002730021 
-9 1:20.175 2:18.7 3:419 4:448.5 5:0.002725784 
-9 1:20.1 2:18.745 3:419 4:451 5:0.002719666 
-9 1:20.133333 2:18.7 3:409 4:458.66667 5:0.002718736 
-9 1:20.175 2:18.7225 3:411 4:456 5:0.002729078 
-9 1:21.7225 2:20.5 3:490.25 4:816 5:0.003289448 
-9 1:21.7 2:20.5 3:479 4:813.25 5:0.003284903 
-9 1:21.7 2:20.39 3:474 4:806 5:0.003267184 
-9 1:21.7 2:20.525 3:492.75 4:804.5 5:0.00328893 
-9 1:21.7 2:20.075 3:44 4:754.75 5:0.003216449 
-9 1:21.7 2:20.075 3:60.25 4:755 5:0.003216449 
-9 1:21.65 2:20.05 3:60.75 4:753.5 5:0.003202565 
-9 1:21.65 2:20.05 3:57 4:760 5:0.003202565 
-9 1:21.6 2:20 3:67 4:758 5:0.003184732 
-9 1:21.6 2:20 3:66.5 4:751.75 5:0.003184732 
-9 1:21.6 2:20 3:53 4:739.25 5:0.003184732 
-9 1:21.533333 2:19.963333 3:58.333333 4:732 5:0.003165854 
-9 1:21.55 2:20 3:61.5 4:733 5:0.003174952 
-9 1:21.525 2:20 3:48.5 4:723.5 5:0.003170072 
-9 1:21.5 2:19.9725 3:62.5 4:720.25 5:0.003160825 
-9 1:21.5 2:20 3:68.75 4:719.25 5:0.003165199 
-9 1:21.5 2:19.9725 3:47 4:714.33333 5:0.003160825 
-9 1:21.4725 2:19.945 3:54.5 4:713.4 5:0.003151112 
-9 1:21.445 2:19.89 3:50 4:708 5:0.003137064 
-9 1:21.39 2:19.89 3:50 4:708.5 5:0.003126457 
-9 1:21.39 2:19.89 3:52.333333 4:701 5:0.003126457 
-9 1:21.39 2:19.89 3:57 4:692.5 5:0.003126457 
-9 1:21.39 2:19.89 3:81.25 4:688.75 5:0.003126457 
-9 1:21.39 2:19.696667 3:50 4:689.66667 5:0.003095916 
-9 1:21.34 2:19.7675 3:51.75 4:676.25 5:0.00309755 
-9 1:21.29 2:19.726667 3:58.333333 4:671.33333 5:0.00308161 
-9 1:21.29 2:19.666667 3:131.33333 4:665.33333 5:0.003072191 
-9 1:21.5 2:19.315 3:546 4:647 5:0.003056258 
-9 1:21.5 2:19.39 3:573 4:652.66667 5:0.003068184 
-9 1:21.55 2:19.34 3:560.75 4:663.75 5:0.003069662 
-9 1:21.6 2:19.356667 3:524 4:652 5:0.003081782 
-9 1:21.6 2:19.29 3:537 4:653 5:0.003071115 
-9 1:21.625 2:19.2225 3:548.75 4:649.5 5:0.003065023 
-9 1:19.6 2:19.6 3:81.666667 4:455.33333 5:0.002757055 
-9 1:19.633333 2:19.6 3:82.666667 4:457 5:0.002762796 
-9 1:19.65 2:19.5 3:89.75 4:461.5 5:0.002751498 
-9 1:19.7 2:19.533333 3:96 4:458 5:0.002764832 
-9 1:19.7675 2:19.5 3:93.5 4:461 5:0.002771733 
-9 1:19.79 2:19.39 3:93.5 4:458 5:0.002759896 
-9 1:19.79 2:19.39 3:91.5 4:460 5:0.002759896 
-9 1:19.89 2:19.4175 3:103 4:453.25 5:0.002781099 
-9 1:19.89 2:19.39 3:107.25 4:452.5 5:0.002777143 
-9 1:19.926667 2:19.426667 3:110 4:455.33333 5:0.002788777 
-9 1:19.945 2:19.365 3:112 4:451 5:0.00278306 
-9 1:20 2:19.34 3:116 4:453 5:0.002788981 
-9 1:20 2:19.29 3:119.5 4:450.75 5:0.002781738 
-9 1:20 2:19.29 3:126.33333 4:450.66667 5:0.002781738 
-9 1:20 2:19.2675 3:133 4:458.25 5:0.002778479 
-9 1:20.066667 2:19.26 3:133 4:460.66667 5:0.002788935 
-9 1:20.1 2:19.29 3:130.5 4:460 5:0.002799094 
-9 1:20.133333 2:19.23 3:137.66667 4:457 5:0.002796137 
-9 1:20.15 2:19.2225 3:137.75 4:455 5:0.002797938 
-9 1:20.133333 2:19.2 3:143.33333 4:456.33333 5:0.002791755 
-9 1:20.2 2:19.2 3:141.6 4:461.75 5:0.002803345 
-9 1:20.2675 2:19.2 3:151.75 4:459.6 5:0.002815123 
-9 1:20.2675 2:19.175 3:152 4:455 5:0.002811441 
-9 1:20.29 2:19.175 3:157 4:454.4 5:0.002815371 
-9 1:20.29 2:19.15 3:153 4:458.5 5:0.002811684 
-9 1:20.365 2:19.1 3:165.5 4:455.75 5:0.002817394 
-9 1:20.39 2:19.075 3:168 4:455 5:0.002818058 
-9 1:20.39 2:19.033333 3:173.33333 4:456 5:0.002811874 
-9 1:20.39 2:19 3:166.25 4:455.5 5:0.002806927 
-9 1:20.445 2:19.05 3:170.5 4:453.5 5:0.002823965 
-9 1:20.5 2:19.025 3:172.5 4:460.5 5:0.002829875 
-9 1:20.5 2:19 3:175.33333 4:454.66667 5:0.00282614 
-9 1:20.525 2:19 3:181.5 4:455 5:0.002830522 
-9 1:20.55 2:19 3:188.5 4:458.25 5:0.002834911 
-9 1:20.6 2:18.9725 3:190 4:457 5:0.002839571 
-9 1:20.6 2:18.926667 3:196.66667 4:456.33333 5:0.00283268 
-9 1:20.65 2:18.945 3:199 4:457.5 5:0.002844229 
-9 1:20.7 2:18.9175 3:215 4:454.5 5:0.002848886 
-9 1:20.7 2:18.89 3:611.5 4:452.25 5:0.002844726 
-9 1:20.7 2:18.89 3:1546.3333 4:455.33333 5:0.002844726 
-9 1:20.745 2:18.89 3:1451.75 4:453 5:0.002852659 
-9 1:20.76 2:18.856667 3:829 4:452.66667 5:0.002850246 
-9 1:20.79 2:18.84 3:251.25 4:458.75 5:0.002853004 
-9 1:20.79 2:18.815 3:205.5 4:461.66667 5:0.002849201 
-9 1:20.79 2:18.84 3:220.75 4:458.4 5:0.002853004 
-9 1:20.823333 2:18.856667 3:224.66667 4:454.33333 5:0.002861432 
-9 1:20.815 2:18.815 3:205 4:458.5 5:0.00285361 
-9 1:20.84 2:18.84 3:219 4:457.5 5:0.002861839 
-9 1:20.89 2:18.84 3:212 4:460 5:0.002870698 
-9 1:20.89 2:18.815 3:230.25 4:459.25 5:0.002866871 
-9 1:20.89 2:18.823333 3:241.33333 4:459.33333 5:0.002868147 
-9 1:20.963333 2:18.79 3:204.33333 4:460.33333 5:0.002876047 
-9 1:20.9725 2:18.79 3:183.25 4:464 5:0.002877675 
-9 1:20.963333 2:18.79 3:229 4:459 5:0.002876047 
-9 1:21 2:18.7675 3:206.5 4:456.75 5:0.002879099 
-9 1:21 2:18.7675 3:204 4:459.75 5:0.002879099 
-9 1:21 2:18.7675 3:257.25 4:459 5:0.002879099 
-9 1:21 2:18.7 3:257 4:456.5 5:0.002868696 
-9 1:21.075 2:18.7 3:257 4:458.25 5:0.00288201 
-9 1:21.125 2:18.7 3:253 4:461.5 5:0.002890915 
-9 1:21.1 2:18.666667 3:270.33333 4:463 5:0.00288129 
-9 1:21.133333 2:18.6 3:269 4:460.66667 5:0.002876863 
-9 1:21.15 2:18.6 3:265.5 4:461 5:0.002879822 
-9 1:21.2 2:18.6 3:270 4:461.66667 5:0.002888716 
-9 1:21.2 2:18.6 3:271 4:463.33333 5:0.002888716 
-9 1:21.2675 2:18.6 3:258 4:461.25 5:0.00290076 
-9 1:21.29 2:18.6 3:267 4:463 5:0.002904785 
-9 1:21.29 2:18.566667 3:270.33333 4:460.33333 5:0.002899555 
-9 1:21.29 2:18.525 3:258.75 4:461.5 5:0.002893018 
-9 1:21.315 2:18.525 3:269 4:461.75 5:0.002897477 
-9 1:21.365 2:18.5 3:262.5 4:455.5 5:0.002902474 
-9 1:21.356667 2:18.5 3:275.33333 4:457.33333 5:0.002900985 
-9 1:21.39 2:18.5 3:271.25 4:459.25 5:0.002906945 
-9 1:21.4175 2:18.5 3:288.25 4:461.5 5:0.002911871 
-9 1:21.39 2:18.445 3:291 4:460.5 5:0.002898263 
-9 1:21.5 2:18.5 3:287.25 4:462 5:0.002926692 
-9 1:21.5 2:18.5 3:283.33333 4:464 5:0.002926692 
-9 1:21.5 2:18.5 3:290.5 4:462.5 5:0.002926692 
-9 1:21.5 2:18.4725 3:290.25 4:461.5 5:0.002922321 
-9 1:21.5 2:18.426667 3:303 4:459 5:0.002915036 
-9 1:21.55 2:18.39 3:300.5 4:459.25 5:0.002918169 
-9 1:21.6 2:18.39 3:297 4:462.5 5:0.002927154 
-9 1:21.6 2:18.39 3:300.5 4:458.5 5:0.002927154 
-9 1:21.6 2:18.39 3:307.66667 4:457 5:0.002927154 
-9 1:21.7 2:18.39 3:306.75 4:454 5:0.002945197 
-9 1:21.7 2:18.365 3:305 4:454.5 5:0.002941174 
-9 1:21.7 2:18.29 3:304 4:456 5:0.002929106 
-9 1:21.7 2:18.29 3:305 4:460.75 5:0.002929106 
-9 1:21.7 2:18.29 3:317.33333 4:454.66667 5:0.002929106 
-9 1:21.745 2:18.245 3:300.5 4:459 5:0.002929952 
-9 1:21.745 2:18.2 3:324.75 4:458.25 5:0.002922692 
-9 1:21.79 2:18.2 3:314 4:454.75 5:0.002930778 
-9 1:21.79 2:18.2 3:316.75 4:453.5 5:0.002930778 
-9 1:21.84 2:18.2225 3:327.5 4:463 5:0.002943436 
-9 1:21.856667 2:18.166667 3:311.33333 4:462 5:0.002937377 
-9 1:21.89 2:18.2 3:328.5 4:461.25 5:0.002948816 
-9 1:21.89 2:18.2 3:327 4:459.66667 5:0.002948816 
-9 1:21.89 2:18.1 3:324 4:457.25 5:0.002932538 
-9 1:21.89 2:18.1 3:329.33333 4:460 5:0.002932538 
-9 1:21.89 2:18.1 3:330.25 4:458.5 5:0.002932538 
-9 1:21.945 2:18.1 3:321.25 4:458 5:0.002942445 
-9 1:22 2:18.1 3:334.75 4:460 5:0.002952382 
-9 1:22 2:18.05 3:333 4:452.5 5:0.002944188 
-9 1:22 2:18.025 3:334.75 4:464.5 5:0.002940091 
-9 1:22.033333 2:18.033333 3:345 4:464.33333 5:0.002947471 
-9 1:22.066667 2:18 3:335.33333 4:459 5:0.002948011 
-9 1:22.1 2:18 3:336.5 4:458.5 5:0.002954036 
-9 1:22.1 2:17.9725 3:342 4:461.25 5:0.002949501 
-9 1:22.1 2:17.963333 3:335.33333 4:464.66667 5:0.00294799 
-9 1:22.1 2:17.945 3:288.75 4:461 5:0.002944967 
-9 1:22.1 2:17.89 3:351.33333 4:459.33333 5:0.002935898 
-9 1:22.1 2:17.945 3:348 4:459.25 5:0.002944967 
-9 1:22.1 2:17.9725 3:351 4:457.5 5:0.002949501 
-9 1:22.1 2:18 3:351 4:463 5:0.002954036 
-9 1:22.15 2:17.945 3:351 4:458.5 5:0.002953996 
-9 1:22.2 2:17.89 3:355.5 4:456.75 5:0.002953926 
-9 1:22.2 2:17.89 3:333 4:459.75 5:0.002953926 
-9 1:22.2 2:17.89 3:337.5 4:459.5 5:0.002953926 
-9 1:22.2 2:17.89 3:350.25 4:458.5 5:0.002953926 
-9 1:22.245 2:17.89 3:347.5 4:456.75 5:0.00296207 
-9 1:22.29 2:17.89 3:352.33333 4:452 5:0.002970233 
-9 1:22.272 2:17.83 3:350.4 4:452.5 5:0.002956967 
-9 1:22.29 2:17.815 3:357.5 4:455.4 5:0.002957722 
-9 1:22.29 2:17.84 3:353 4:453.5 5:0.002961892 
-9 1:22.34 2:17.79 3:344 4:456.75 5:0.002962594 
-9 1:22.356667 2:17.79 3:350 4:459 5:0.002965614 
-9 1:22.34 2:17.79 3:337.75 4:457.5 5:0.002962594 
-9 1:22.365 2:17.7675 3:333.5 4:453.5 5:0.002963354 
-9 1:22.39 2:17.7 3:338 4:453.66667 5:0.002956556 
-9 1:22.365 2:17.745 3:353 4:452 5:0.002959584 
-9 1:22.356667 2:17.7 3:342 4:452.66667 5:0.00295054 
-9 1:22.39 2:17.7 3:351.5 4:453.5 5:0.002956556 
-9 1:22.39 2:17.7 3:350 4:455.25 5:0.002956556 
-9 1:22.39 2:17.7 3:362 4:452 5:0.002956556 
-9 1:22.4175 2:17.7 3:355.75 4:452.25 5:0.002961528 
-9 1:22.4175 2:17.7 3:342.5 4:459.5 5:0.002961528 
-9 1:22.445 2:17.65 3:353 4:458 5:0.002958087 
-9 1:22.5 2:17.7 3:344 4:456.5 5:0.002976488 
-9 1:22.5 2:17.7 3:357.5 4:456 5:0.002976488 
-9 1:22.5 2:17.7 3:353 4:453.75 5:0.002976488 
-9 1:22.5 2:17.7 3:334 4:459 5:0.002976488 
-9 1:22.533333 2:17.633333 3:331 4:459 5:0.002971263 
-9 1:22.55 2:17.6 3:346 4:458.75 5:0.002968638 
-9 1:22.525 2:17.65 3:341 4:451.5 5:0.002972573 
-9 1:22.5 2:17.6 3:331 4:451 5:0.002959591 
-9 1:22.55 2:17.6 3:354.25 4:450.5 5:0.002968638 
-9 1:22.575 2:17.6 3:349.75 4:455.5 5:0.00297317 
-9 1:22.6 2:17.6 3:364.5 4:453 5:0.002977709 
-9 1:22.6 2:17.6 3:356 4:455.5 5:0.002977709 
-9 1:22.6 2:17.55 3:349.75 4:456 5:0.002969209 
-9 1:22.6 2:17.6 3:357.33333 4:458.66667 5:0.002977709 
-9 1:22.6 2:17.525 3:354.25 4:458.5 5:0.002964959 
-9 1:22.6 2:17.566667 3:357.33333 4:456 5:0.002972042 
-9 1:22.6 2:17.5 3:336.33333 4:455 5:0.00296071 
-9 1:22.6 2:17.6 3:359.75 4:455 5:0.002977709 
-9 1:22.65 2:17.6 3:358 4:458.75 5:0.002986804 
-9 1:22.666667 2:17.566667 3:355 4:455.33333 5:0.002984152 
-9 1:22.7 2:17.6 3:349 4:451 5:0.002995924 
-9 1:22.7 2:17.6 3:358 4:455.5 5:0.002995924 
-9 1:22.7 2:17.6 3:349 4:458 5:0.002995924 
-9 1:22.7 2:17.6 3:352.66667 4:456.66667 5:0.002995924 
-9 1:22.7 2:17.6 3:345.5 4:453.75 5:0.002995924 
-9 1:22.7225 2:17.6 3:347.25 4:454.5 5:0.003000036 
-9 1:22.7225 2:17.6 3:360 4:453.5 5:0.003000036 
-9 1:22.7 2:17.6 3:360 4:453 5:0.002995924 
-9 1:22.79 2:17.6 3:343 4:450.5 5:0.003012401 
-9 1:22.76 2:17.6 3:343 4:452.33333 5:0.0030069 
-9 1:22.79 2:17.6 3:343 4:453.5 5:0.003012401 
-9 1:22.76 2:17.6 3:344.33333 4:450 5:0.0030069 
-9 1:22.79 2:17.6 3:339.5 4:450.5 5:0.003012401 
-9 1:22.79 2:17.6 3:339.5 4:452 5:0.003012401 
-9 1:22.79 2:17.6 3:357.5 4:455.75 5:0.003012401 
-9 1:22.79 2:17.6 3:354 4:458 5:0.003012401 
-9 1:22.79 2:17.6 3:334 4:457 5:0.003012401 
-9 1:22.815 2:17.6 3:334.5 4:461.75 5:0.003016993 
-9 1:22.815 2:17.6 3:336 4:458 5:0.003016993 
-9 1:22.856667 2:17.6 3:334 4:455.66667 5:0.003024658 
-9 1:22.89 2:17.6 3:352.25 4:453 5:0.003030803 
-9 1:22.89 2:17.6 3:338.33333 4:451.66667 5:0.003030803 
-9 1:22.865 2:17.6 3:340.5 4:452.5 5:0.003026193 
-9 1:22.89 2:17.6 3:333 4:454 5:0.003030803 
-9 1:22.89 2:17.6 3:337.2 4:457 5:0.003030803 
-9 1:22.89 2:17.6 3:336 4:448.66667 5:0.003030803 
-9 1:22.89 2:17.6 3:334.5 4:451.25 5:0.003030803 
-9 1:22.9175 2:17.625 3:342.75 4:453 5:0.003040214 
-9 1:22.89 2:17.65 3:342.75 4:455.25 5:0.003039455 
-9 1:22.89 2:17.625 3:341 4:457 5:0.003035129 
-9 1:22.89 2:17.65 3:341 4:457 5:0.003039455 
-9 1:22.89 2:17.675 3:318.5 4:452.5 5:0.003043782 
-9 1:22.89 2:17.633333 3:337 4:453.66667 5:0.003036571 
-9 1:22.89 2:17.6 3:314.66667 4:457.33333 5:0.003030803 
-9 1:22.9175 2:17.6 3:298.75 4:453 5:0.003035881 
-9 1:22.945 2:17.55 3:312.25 4:459 5:0.003032285 
-9 1:22.945 2:17.6 3:321.5 4:458.25 5:0.003040966 
-9 1:22.926667 2:17.533333 3:317 4:452 5:0.003026013 
-9 1:22.9725 2:17.525 3:319.75 4:451.5 5:0.003033015 
-9 1:22.9725 2:17.55 3:310.75 4:445 5:0.003037363 
-9 1:23 2:17.6 3:313.5 4:444.5 5:0.003051159 
-9 1:22.9725 2:17.5 3:313.5 4:445.75 5:0.003028667 
-9 1:23 2:17.5 3:310 4:449 5:0.003033738 
-9 1:23 2:17.5 3:310 4:449.5 5:0.003033738 
-9 1:23 2:17.463333 3:310 4:446 5:0.003027351 
-9 1:23 2:17.4175 3:308.75 4:449.5 5:0.003019367 
-9 1:23 2:17.39 3:308.75 4:455 5:0.003014576 
-9 1:23.033333 2:17.426667 3:318.33333 4:457 5:0.003027094 
-9 1:23.033333 2:17.356667 3:312.33333 4:455 5:0.003014876 
-9 1:23 2:17.315 3:308.5 4:452 5:0.003001512 
-9 1:23.02 2:17.352 3:317.5 4:456 5:0.003011618 
-9 1:23.033333 2:17.356667 3:308.5 4:454 5:0.003014876 
-9 1:23.025 2:17.365 3:306.75 4:447.25 5:0.003014802 
-9 1:23.04 2:17.35 3:321.25 4:445.5 5:0.003014934 
-9 1:23.066667 2:17.356667 3:305 4:450.25 5:0.003020992 
-9 1:23.05 2:17.315 3:315 4:446.75 5:0.003010653 
-9 1:23.1 2:17.29 3:310.5 4:446.5 5:0.003015436 
-9 1:23.066667 2:17.26 3:297 4:448.66667 5:0.003004086 
-9 1:23.066667 2:17.26 3:297 4:451.33333 5:0.003004086 
-9 1:23.1 2:17.29 3:310.5 4:453.5 5:0.003015436 
-9 1:23.075 2:17.2675 3:310.5 4:455 5:0.00300692 
-9 1:23.1 2:17.29 3:303 4:454.66667 5:0.003015436 
-9 1:23.1 2:17.29 3:312.66667 4:448.66667 5:0.003015436 
-9 1:23.075 2:17.2675 3:291 4:450.5 5:0.00300692 
-9 1:23.1 2:17.245 3:288 4:447.5 5:0.00300755 
-9 1:23.1 2:17.2 3:291 4:444 5:0.002999664 
-9 1:23.1 2:17.2 3:301 4:444.25 5:0.002999664 
-9 1:23.1 2:17.2 3:292 4:448.5 5:0.002999664 
-9 1:23.1 2:17.166667 3:302 4:446 5:0.002993823 
-9 1:23.1 2:17.1 3:293.5 4:449.75 5:0.002982141 
-9 1:23.1 2:17.033333 3:302 4:453 5:0.002970459 
-9 1:23.1 2:17.05 3:285 4:448.75 5:0.002973379 
-9 1:23.1 2:17 3:285 4:448.5 5:0.002964618 
-9 1:23.1 2:17 3:285 4:448.25 5:0.002964618 
-9 1:23.1 2:17 3:283.25 4:451 5:0.002964618 
-9 1:23.1 2:17 3:288.66667 4:449.66667 5:0.002964618 
-9 1:23.1 2:17 3:278.75 4:448.5 5:0.002964618 
-9 1:23.1 2:17 3:279.75 4:446 5:0.002964618 
-9 1:23.1 2:17 3:283.25 4:447 5:0.002964618 
-9 1:23.1 2:17 3:271 4:441.66667 5:0.002964618 
-9 1:23.1 2:17.06 3:268 4:445.25 5:0.002975132 
-9 1:23.1 2:17.033333 3:268.25 4:447.5 5:0.002970459 
-9 1:23.1 2:17.066667 3:266 4:446.33333 5:0.0029763 
-9 1:23.1 2:17 3:270.25 4:453.5 5:0.002964618 
-9 1:23.1 2:16.9725 3:268.5 4:449.25 5:0.0029598 
-9 1:23.1 2:16.89 3:272 4:445.25 5:0.002945345 
-9 1:23.1 2:16.89 3:274 4:445 5:0.002945345 
-9 1:23.1 2:16.84 3:265 4:446 5:0.002936584 
-9 1:23.1 2:16.89 3:265 4:449 5:0.002945345 
-9 1:23.1 2:16.963333 3:267.33333 4:448.66667 5:0.002958193 
-9 1:23.075 2:16.9725 3:243.75 4:442.75 5:0.002955306 
-9 1:23.066667 2:17 3:265 4:449.33333 5:0.002958618 
-9 1:23.075 2:17 3:263.5 4:449.5 5:0.002960117 
-9 1:23.1 2:17 3:262 4:452 5:0.002964618 
-9 1:23.075 2:17 3:260.5 4:449.75 5:0.002960117 
-9 1:23.1 2:17 3:252 4:447.66667 5:0.002964618 
-9 1:23.075 2:16.945 3:259 4:443.5 5:0.002950495 
-9 1:23.075 2:16.865 3:250 4:443.25 5:0.002936499 
-9 1:23.1 2:16.945 3:241 4:447 5:0.002954981 
-9 1:23.075 2:16.865 3:248.25 4:452.5 5:0.002936499 
-9 1:23.075 2:16.865 3:261 4:448 5:0.002936499 
-9 1:23.075 2:16.865 3:252 4:448.5 5:0.002936499 
-9 1:23.05 2:16.865 3:243 4:451.75 5:0.00293204 
-9 1:23.025 2:16.89 3:239.75 4:446 5:0.002931947 
-9 1:23 2:16.89 3:241.33333 4:444 5:0.002927493 
-9 1:23 2:16.865 3:232.5 4:441.25 5:0.002923139 
-9 1:23.025 2:16.84 3:224.75 4:438.75 5:0.002923227 
-9 1:23 2:16.79 3:221.66667 4:440 5:0.002910079 
-9 1:23 2:16.79 3:199 4:441 5:0.002910079 
-9 1:23 2:16.79 3:206.25 4:438 5:0.002910079 
-9 1:23 2:16.84 3:186 4:439.75 5:0.002918786 
-9 1:23 2:16.823333 3:189 4:443 5:0.002915884 
-9 1:23 2:16.745 3:189 4:442.75 5:0.002902243 
-9 1:22.963333 2:16.79 3:189 4:440 5:0.002903596 
-9 1:22.9725 2:16.79 3:181.5 4:444 5:0.002905216 
-9 1:22.9725 2:16.865 3:198 4:445.5 5:0.002918254 
-9 1:22.945 2:16.84 3:180 4:444.5 5:0.002909037 
-9 1:22.9175 2:16.89 3:193.5 4:441.5 5:0.002912837 
-9 1:22.9175 2:16.865 3:188.5 4:442.5 5:0.002908505 
-9 1:22.926667 2:16.89 3:202 4:446.33333 5:0.002914462 
-9 1:22.89 2:16.9175 3:187.5 4:447.25 5:0.002912723 
-9 1:22.89 2:16.89 3:205 4:445 5:0.002907966 
-9 1:22.89 2:17 3:201.5 4:437 5:0.002926994 
-9 1:22.89 2:17 3:193.75 4:440.25 5:0.002926994 
-9 1:22.89 2:17 3:171.75 4:438.5 5:0.002926994 
-9 1:22.79 2:17 3:157 4:440.25 5:0.002909226 
-9 1:22.823333 2:17.066667 3:139.33333 4:446 5:0.002926624 
-9 1:22.79 2:17.066667 3:164.66667 4:444.33333 5:0.002920688 
-9 1:22.79 2:17.1 3:150 4:443.5 5:0.002926419 
-9 1:22.76 2:17.1 3:149.66667 4:441.66667 5:0.002921076 
-9 1:22.7225 2:17.075 3:154 4:439.5 5:0.002910128 
-9 1:22.73 2:17.033333 3:160.66667 4:441 5:0.00290432 
-9 1:22.7 2:17.075 3:143.25 4:446.5 5:0.00290614 
-9 1:22.7 2:17.1 3:151 4:441.5 5:0.002910414 
-9 1:22.7 2:17.033333 3:153.33333 4:441.66667 5:0.002899015 
-9 1:22.7 2:17.025 3:157 4:439.5 5:0.00289759 
-9 1:22.7 2:17.05 3:144.75 4:442.5 5:0.002901865 
-9 1:22.7 2:17.1 3:115 4:443.75 5:0.002910414 
-9 1:22.65 2:17.1 3:131 4:445 5:0.002901556 
-9 1:22.6 2:17.1 3:140 4:443.25 5:0.002892722 
-9 1:22.6 2:17.1 3:167.66667 4:444 5:0.002892722 
-9 1:22.6 2:17.125 3:168.75 4:436.5 5:0.00289697 
-9 1:22.6 2:17.133333 3:176 4:437 5:0.002898387 
-9 1:22.6 2:17.175 3:163 4:445.75 5:0.002905468 
-9 1:22.6 2:17.2 3:170 4:446 5:0.002909717 
-9 1:22.6 2:17.175 3:163.25 4:443.75 5:0.002905468 
-9 1:22.6 2:17.1 3:151 4:442.25 5:0.002892722 
-9 1:22.6 2:17.166667 3:140.66667 4:446 5:0.002904052 
-9 1:22.6 2:17.15 3:138.5 4:446.25 5:0.002901219 
-9 1:22.6 2:17.175 3:142.5 4:443 5:0.002905468 
-9 1:22.6 2:17.166667 3:139 4:439.33333 5:0.002904052 
-9 1:22.6 2:17.2225 3:158.5 4:441.5 5:0.002913541 
-9 1:22.55 2:17.2225 3:157 4:440.5 5:0.002904667 
-9 1:22.6 2:17.2 3:148 4:442.5 5:0.002909717 
-9 1:22.55 2:17.245 3:139 4:444 5:0.002908479 
-9 1:22.5 2:17.245 3:139 4:444 5:0.002899617 
-9 1:22.5 2:17.34 3:151.75 4:443.75 5:0.002915665 
-9 1:22.5 2:17.39 3:142 4:445 5:0.002924112 
-9 1:22.5 2:17.365 3:126.5 4:447.5 5:0.002919888 
-9 1:22.5 2:17.39 3:120 4:444.33333 5:0.002924112 
-9 1:22.4725 2:17.365 3:123 4:443 5:0.00291499 
-9 1:22.445 2:17.365 3:121.5 4:441.5 5:0.002910099 
-9 1:22.5 2:17.39 3:117 4:437 5:0.002924112 
-9 1:22.4725 2:17.39 3:126 4:440 5:0.002919206 
-9 1:22.39 2:17.323333 3:124 4:439.66667 5:0.002893346 
-9 1:22.39 2:17.315 3:123 4:437 5:0.002891948 
-9 1:22.39 2:17.34 3:138 4:436 5:0.002896143 
-9 1:22.39 2:17.39 3:116 4:442.75 5:0.002904533 
-9 1:22.39 2:17.39 3:122.75 4:441.5 5:0.002904533 
-9 1:22.39 2:17.4175 3:128.25 4:442 5:0.002909148 
-9 1:22.365 2:17.39 3:126.5 4:441 5:0.002900099 
-9 1:22.356667 2:17.5 3:119 4:442.33333 5:0.002917044 
-9 1:22.39 2:17.525 3:110 4:442.25 5:0.002927187 
-9 1:22.39 2:17.6 3:125 4:442.66667 5:0.002939774 
-9 1:22.365 2:17.6 3:116 4:442 5:0.002935286 
-9 1:22.29 2:17.6 3:119 4:438 5:0.002921859 
-9 1:22.29 2:17.6 3:116 4:440.5 5:0.002921859 
-9 1:22.34 2:17.6 3:107 4:445 5:0.002930804 
-9 1:22.29 2:17.6 3:107 4:439.5 5:0.002921859 
-9 1:22.29 2:17.6 3:118 4:440.66667 5:0.002921859 
-9 1:22.29 2:17.675 3:100 4:440.5 5:0.002934369 
-9 1:22.29 2:17.7 3:100 4:440 5:0.002938539 
-9 1:22.29 2:17.7 3:100 4:442.75 5:0.002938539 
-9 1:22.29 2:17.7 3:100 4:443 5:0.002938539 
-9 1:22.2225 2:17.675 3:99.5 4:443.5 5:0.002922279 
-9 1:22.2 2:17.7 3:87 4:445.5 5:0.002922406 
-9 1:22.2 2:17.7 3:87 4:444.5 5:0.002922406 
-9 1:22.2 2:17.7 3:105 4:441.25 5:0.002922406 
-9 1:22.2 2:17.7 3:105 4:442 5:0.002922406 
-9 1:22.175 2:17.745 3:90.5 4:440.25 5:0.002925392 
-9 1:22.15 2:17.745 3:97.75 4:441.25 5:0.002920919 
-9 1:22.175 2:17.79 3:93.25 4:441.5 5:0.002932845 
-9 1:22.15 2:17.79 3:87 4:438.5 5:0.002928361 
-9 1:22.1 2:17.79 3:87 4:445.33333 5:0.00291941 
-9 1:22.133333 2:17.79 3:87 4:443.66667 5:0.002925375 
-9 1:22.1 2:17.823333 3:89.333333 4:441 5:0.002924906 
-9 1:22.1 2:17.865 3:91.75 4:438 5:0.002931776 
-9 1:22.1 2:17.89 3:81 4:437 5:0.002935898 
-9 1:22.1 2:17.89 3:81 4:446.25 5:0.002935898 
-9 1:22.1 2:17.945 3:76.5 4:445.25 5:0.002944967 
-9 1:22.066667 2:17.963333 3:82.333333 4:441.66667 5:0.002941977 
-9 1:22.025 2:17.9175 3:77.5 4:445.5 5:0.002926955 
-9 1:22 2:17.9725 3:77.5 4:446.5 5:0.002931487 
-9 1:22 2:18 3:78.5 4:445.25 5:0.002935994 
-9 1:22 2:18 3:74 4:446 5:0.002935994 
-9 1:19.29 2:30.89 3:97 4:432 5:0.004272519 
-9 1:19.29 2:30.89 3:147.5 4:439.75 5:0.004272519 
-9 1:19.29 2:30.865 3:166 4:437.75 5:0.004269038 
-9 1:19.34 2:30.79 3:149 4:433.5 5:0.004271965 
-9 1:19.39 2:30.7 3:146 4:428.75 5:0.004272761 
-9 1:19.39 2:30.65 3:167.5 4:428.5 5:0.004265755 
-9 1:19.445 2:30.625 3:118.25 4:430.5 5:0.004276964 
-9 1:19.245 2:30.745 3:116.75 4:424.25 5:0.004240342 
-9 1:19.29 2:30.745 3:112.5 4:425 5:0.004252327 
-9 1:19.29 2:30.7675 3:201.5 4:431 5:0.00425546 
-9 1:19.29 2:30.7 3:102.66667 4:435 5:0.00424606 
-9 1:19.315 2:30.7 3:85.75 4:431.25 5:0.004252722 
-9 1:19.29 2:30.7 3:81 4:431.33333 5:0.00424606 
-9 1:19.365 2:30.675 3:81.5 4:435.75 5:0.004262574 
-9 1:19.39 2:30.633333 3:93.666667 4:434.33333 5:0.004263419 
-9 1:19.39 2:30.6 3:106 4:431 5:0.004258748 
-9 1:19.39 2:30.5 3:79.5 4:428.75 5:0.004244736 
-9 1:19.39 2:30.5 3:110 4:430 5:0.004244736 
-9 1:19.39 2:30.5 3:150.25 4:427 5:0.004244736 
-9 1:19.4175 2:30.4175 3:255 4:425.66667 5:0.004240476 
-9 1:19.5 2:30.426667 3:317.25 4:428.75 5:0.004263736 
-9 1:19.525 2:30.34 3:233 4:429.5 5:0.004258168 
-9 1:19.6 2:30.245 3:277.5 4:432.75 5:0.004264713 
-9 1:19.675 2:30.2 3:88.5 4:428.75 5:0.004278346 
-9 1:19.633333 2:30.133333 3:84.666667 4:428.66667 5:0.004257728 
-9 1:19.65 2:30.15 3:81.5 4:427.5 5:0.004264542 
-9 1:19.7 2:30.15 3:90.5 4:422 5:0.004277895 
-9 1:19.6 2:30.1 3:99.75 4:422.5 5:0.004244128 
-9 1:19.633333 2:30.1 3:226 4:423 5:0.004252986 
-9 1:19.7 2:30.1 3:161.25 4:422.25 5:0.004270752 
-9 1:19.7 2:30.1 3:178.66667 4:425 5:0.004270752 
-9 1:19.7225 2:30 3:241 4:428.25 5:0.004262457 
-9 1:19.79 2:30 3:214.75 4:425 5:0.004280474 
-9 1:19.79 2:29.9175 3:293.5 4:425.5 5:0.004268622 
-9 1:19.89 2:29.84 3:290.5 4:426 5:0.004284158 
-9 1:19.926667 2:29.79 3:290.66667 4:424.33333 5:0.004286729 
-9 1:20 2:29.7225 3:288.5 4:425.75 5:0.004296562 
-9 1:20.025 2:29.65 3:295.5 4:425.5 5:0.004292697 
-9 1:20.033333 2:29.6 3:194 4:429.33333 5:0.004287636 
-9 1:20.125 2:29.575 3:261.75 4:426 5:0.004308538 
-9 1:20.133333 2:29.5 3:243.33333 4:430 5:0.004299769 
-9 1:20.125 2:29.445 3:247.5 4:427 5:0.004289469 
-9 1:20.2 2:29.39 3:256 4:430.5 5:0.004301451 
-9 1:20.2 2:29.365 3:192.75 4:426.75 5:0.004297767 
-9 1:20.245 2:29.365 3:252.5 4:425 5:0.004309826 
-9 1:20.23 2:29.323333 3:287.66667 4:428.66667 5:0.004299651 
-9 1:20.29 2:29.315 3:279.75 4:429 5:0.004314505 
-9 1:20.29 2:29.23 3:253.33333 4:427.66667 5:0.004301908 
-9 1:20.34 2:29.2 3:273 4:427.5 5:0.004310853 
-9 1:20.39 2:29.2 3:272 4:427.33333 5:0.00432428 
-9 1:20.39 2:29.2 3:273.33333 4:429 5:0.00432428 
-9 1:20.445 2:29.125 3:265 4:424.75 5:0.004327871 
-9 1:20.4725 2:28.9725 3:265 4:426.75 5:0.004312417 
-9 1:20.5 2:28.823333 3:265 4:429.33333 5:0.004297398 
-9 1:20.5 2:28.823333 3:265 4:423.66667 5:0.004297398 
-9 1:20.525 2:28.7225 3:265 4:426.75 5:0.004288917 
-9 1:20.55 2:28.7 3:262 4:434.25 5:0.004292194 
-9 1:20.6 2:28.6 3:259 4:427 5:0.004290436 
-9 1:20.6 2:28.6 3:257.25 4:425.5 5:0.004290436 
-9 1:20.65 2:28.525 3:256.75 4:429 5:0.004292409 
-9 1:20.625 2:28.5 3:247.25 4:431.5 5:0.004281971 
-9 1:20.7 2:28.5 3:175.66667 4:431 5:0.004301946 
-9 1:20.7 2:28.5 3:250.75 4:432 5:0.004301946 
-9 1:20.7 2:28.4175 3:255.5 4:432 5:0.004289407 
-9 1:20.7 2:28.245 3:252 4:425 5:0.004263191 
-9 1:20.7 2:28.166667 3:260.33333 4:422 5:0.004251287 
-9 1:20.745 2:28.1 3:174.5 4:427 5:0.00425301 
-9 1:20.7225 2:28.1 3:97.75 4:431.5 5:0.004247079 
-9 1:20.7 2:28.1 3:252 4:429 5:0.004241156 
-9 1:20.7 2:28.1 3:215.5 4:426.5 5:0.004241156 
-9 1:20.745 2:28.025 3:164.5 4:424.75 5:0.004241581 
-9 1:20.73 2:28 3:97.666667 4:422 5:0.004233831 
-9 1:20.7 2:27.945 3:237 4:420 5:0.004217604 
-9 1:20.745 2:27.815 3:153 4:418 5:0.004209582 
-9 1:20.7225 2:27.84 3:231.5 4:420.5 5:0.004207517 
-9 1:20.7 2:27.815 3:82 4:423.5 5:0.004197851 
-9 1:20.7 2:27.79 3:90 4:422 5:0.004194052 
-9 1:20.7 2:27.76 3:89 4:423.66667 5:0.004189494 
-9 1:20.7 2:27.79 3:115.25 4:428.75 5:0.004194052 
-9 1:20.68 2:27.79 3:96.4 4:428.75 5:0.004188852 
-9 1:20.6 2:27.7 3:127 4:428 5:0.004154521 
-9 1:20.6 2:27.65 3:169.25 4:429 5:0.004146971 
-9 1:20.625 2:27.65 3:205.5 4:429.5 5:0.004153411 
-9 1:20.65 2:27.65 3:202 4:427 5:0.004159859 
-9 1:20.7 2:27.625 3:156.75 4:422.75 5:0.004168984 
-9 1:20.7 2:27.6 3:209 4:425 5:0.004165186 
-9 1:20.7 2:27.525 3:211 4:426 5:0.004153792 
-9 1:20.7 2:27.463333 3:133.33333 4:425 5:0.004144424 
-9 1:20.7 2:27.39 3:197.25 4:424 5:0.004133283 
-9 1:20.7 2:27.39 3:147.5 4:420.5 5:0.004133283 
-9 1:20.7 2:27.323333 3:171 4:423 5:0.004123156 
-9 1:20.7 2:27.2675 3:152 4:425.25 5:0.004114675 
-1.852843915343915 1:20.7 2:27.175 3:77.5 4:424.75 5:0.004100625 
-9 1:20.666667 2:27.166667 3:123 4:425 5:0.004090893 
-9 1:20.6 2:27.0475 3:151.5 4:423.75 5:0.004056019 
-9 1:20.625 2:26.9975 3:182 4:425.5 5:0.004054757 
-9 1:20.65 2:27.05 3:199.75 4:424.5 5:0.004069 
-9 1:20.65 2:27 3:201.5 4:422 5:0.00406143 
-9 1:20.675 2:26.89 3:179.5 4:418.5 5:0.004051053 
-9 1:20.675 2:26.8925 3:195.25 4:417 5:0.004051432 
-9 1:20.7 2:26.823333 3:157.33333 4:418.33333 5:0.004047214 
-9 1:20.7 2:26.79 3:141 4:427.75 5:0.004042152 
-9 1:20.7 2:26.79 3:183 4:424.75 5:0.004042152 
-9 1:20.7 2:26.79 3:186 4:428 5:0.004042152 
-9 1:20.7 2:26.745 3:186 4:428 5:0.004035318 
-9 1:20.7 2:26.675 3:136 4:423 5:0.004024688 
-9 1:20.7 2:26.65 3:85.5 4:420.5 5:0.004020892 
-9 1:20.7 2:26.65 3:128.75 4:412.75 5:0.004020892 
-9 1:20.666667 2:26.6 3:178.33333 4:414 5:0.004005012 
-9 1:20.7 2:26.6 3:154.25 4:421 5:0.004013299 
-9 1:20.7 2:26.5 3:140.5 4:415 5:0.003998115 
-9 1:20.7 2:26.5 3:130 4:416.33333 5:0.003998115 
-9 1:20.675 2:26.4725 3:113 4:415.75 5:0.003987752 
-9 1:20.666667 2:26.5 3:152.33333 4:417.33333 5:0.003989859 
-9 1:20.625 2:26.39 3:145 4:418.66667 5:0.003962936 
-9 1:20.675 2:26.4175 3:151 4:426.6 5:0.003979414 
-9 1:20.625 2:26.4175 3:152.5 4:427 5:0.003967092 
-9 1:20.675 2:26.39 3:142.25 4:424.5 5:0.003975245 
-9 1:20.675 2:26.365 3:134.5 4:420.75 5:0.003971455 
-9 1:20.7 2:26.39 3:149.25 4:418.25 5:0.003981413 
-9 1:20.7 2:26.315 3:115.75 4:423 5:0.003970025 
-9 1:20.666667 2:26.356667 3:142.33333 4:421 5:0.003968141 
-9 1:20.7 2:26.356667 3:130 4:423 5:0.003976352 
-9 1:20.675 2:26.29 3:145.25 4:429.25 5:0.003960086 
-9 1:20.7 2:26.323333 3:157 4:422.33333 5:0.003971291 
-9 1:20.7 2:26.245 3:106.25 4:419.25 5:0.003959398 
-9 1:20.7 2:26.23 3:82.333333 4:423.66667 5:0.00395712 
-9 1:20.6 2:26.15 3:95.75 4:422 5:0.003920582 
-9 1:20.6 2:26.133333 3:112 4:426 5:0.003918068 
-9 1:20.6 2:26.15 3:110.25 4:424.75 5:0.003920582 
-9 1:20.6 2:26.125 3:85.75 4:421 5:0.00391681 
-9 1:20.6 2:26.125 3:115.25 4:426 5:0.00391681 
-9 1:20.5 2:26.2 3:81.666667 4:417.66667 5:0.003903819 
-9 1:20.5 2:26.245 3:86.25 4:420 5:0.003910566 
-9 1:20.5 2:26.29 3:81 4:421.66667 5:0.003917314 
-9 1:20.39 2:26.2 3:108 4:428.25 5:0.003877236 
-9 1:20.39 2:26.2 3:98.666667 4:424 5:0.003877236 
-9 1:20.39 2:26.245 3:100.25 4:419.75 5:0.003883937 
-9 1:20.39 2:26.23 3:100 4:417.66667 5:0.003881703 
-9 1:20.356667 2:26.2 3:85.333333 4:424.33333 5:0.003869211 
-9 1:20.29 2:26.2 3:79.75 4:426.25 5:0.003853207 
-9 1:20.29 2:26.2 3:85.666667 4:418.66667 5:0.003853207 
-9 1:19.525 2:27.2925 3:397 4:484.75 5:0.003827824 
-9 1:19.525 2:27.365 3:392.5 4:486.75 5:0.003838055 
-9 1:19.566667 2:27.566667 3:393.66667 4:492.33333 5:0.003876606 
-9 1:21.5 2:33.163333 3:31 4:1243.3333 5:0.005266065 
-9 1:21.5 2:33.23 3:31 4:1236.6667 5:0.005276741 
-9 1:21.5 2:33.2675 3:26.5 4:1229.25 5:0.005282746 
-9 1:21.4175 2:33.09 3:13 4:1229.75 5:0.005227615 
-9 1:21.39 2:33.09 3:13 4:1222 5:0.005218739 
-9 1:21.39 2:33.09 3:13 4:1213.75 5:0.005218739 
-9 1:21.39 2:33.09 3:13 4:1209.3333 5:0.005218739 
-9 1:21.39 2:33.0675 3:26.5 4:1201.25 5:0.005215161 
-9 1:21.365 2:33.09 3:26.5 4:1197.5 5:0.005210682 
-9 1:21.29 2:33.06 3:22 4:1197.6667 5:0.005181835 
-9 1:21.315 2:33.045 3:13 4:1196.25 5:0.005187477 
-9 1:21.29 2:33.03 3:13 4:1189.6667 5:0.005177093 
-9 1:21.29 2:33 3:13 4:1175.75 5:0.005172352 
-9 1:21.29 2:33 3:13 4:1169 5:0.005172352 
-9 1:21.29 2:33 3:13 4:1161.3333 5:0.005172352 
-9 1:21.29 2:33 3:13 4:1159 5:0.005172352 
-9 1:21.2675 2:32.95 3:13 4:1159.75 5:0.005157269 
-9 1:21.2 2:32.9 3:13 4:1151.6667 5:0.00512792 
-9 1:21.2 2:32.9 3:13 4:1138.4 5:0.00512792 
-9 1:21.2 2:32.9 3:13 4:1128.25 5:0.00512792 
-9 1:21.2 2:32.8725 3:13 4:1132.25 5:0.005123598 
-9 1:21.2 2:32.79 3:13 4:1115.5 5:0.005110634 
-9 1:21.166667 2:32.79 3:167 4:1117.3333 5:0.005100102 
-9 1:22.1 2:37.69 4:1784.5 5:0.006217725 
-9 1:22.033333 2:37.596667 4:1774 5:0.006176767 
-9 1:22 2:37.59 4:1755.5 5:0.006162995 
-9 1:22.05 2:37.645 4:1742 5:0.006191138 
-9 1:22 2:37.59 4:1742 5:0.006162995 
-9 1:22 2:37.56 4:1737 5:0.006158027 
-9 1:21.89 2:37.5 4:1729.5 5:0.006106558 
-9 1:21.89 2:37.5 4:1722 5:0.006106558 
-9 1:21.89 2:37.45 4:1706.75 5:0.006098336 
-9 1:21.89 2:37.4 4:1697 5:0.006090114 
-9 1:21.89 2:37.4 4:1694 5:0.006090114 
-9 1:21.84 2:37.345 4:1682 5:0.006062353 
-9 1:21.79 2:37.29 4:1678 5:0.006034698 
-9 1:21.79 2:37.29 4:1661.5 5:0.006034698 
-9 1:21.79 2:37.2 4:1660.5 5:0.006019993 
-9 1:21.79 2:37.2 4:1640.5 5:0.006019993 
-9 1:21.73 2:37.126667 4:1629 5:0.00598581 
-9 1:21.745 2:37.145 4:1627 5:0.005994341 
-9 1:21.7 2:37.145 4:1623.5 5:0.005977716 
-9 1:21.7 2:37.045 4:1585 5:0.005961469 
-9 1:21.7 2:37 4:1573 5:0.005954158 
-9 1:21.7 2:37 4:1545.6667 5:0.005954158 
-9 1:21.633333 2:36.933333 4:1544.3333 5:0.005918916 
-9 1:21.6 2:36.9 4:1536 5:0.005901362 
-9 1:21.6 2:36.925 4:1534.25 5:0.005905398 
-9 1:21.6 2:36.9 4:1530 5:0.005901362 
-9 1:21.55 2:36.79 4:1517 5:0.005865459 
-9 1:21.55 2:36.845 4:1512 5:0.00587431 
-9 1:21.533333 2:36.79 4:1508.3333 5:0.005859422 
-9 1:21.55 2:36.745 4:1495 5:0.005858217 
-9 1:21.5 2:36.79 4:1491 5:0.005847363 
-9 1:21.5 2:36.7 4:1474.5 5:0.005832925 
-9 1:21.5 2:36.7 4:1461.5 5:0.005832925 
-9 1:21.5 2:36.7 4:1462.5 5:0.005832925 
-9 1:21.39 2:36.59 4:1466 5:0.005775862 
-9 1:21.445 2:36.6 4:1453.5 5:0.005797139 
-9 1:21.39 2:36.59 4:1449 5:0.005775862 
-9 1:21.39 2:36.5 4:1429 5:0.005761524 
-9 1:21.39 2:36.5 4:1421 5:0.005761524 
-9 1:21.39 2:36.5 4:1419 5:0.005761524 
-9 1:21.34 2:36.5 4:1408 5:0.00574373 
-9 1:21.29 2:36.4 4:1399.5 5:0.005710153 
-9 1:21.29 2:36.4 4:1391 5:0.005710153 
-9 1:21.29 2:36.5 4:1390 5:0.005725985 
-9 1:21.29 2:36.433333 4:1392.3333 5:0.00571543 
-9 1:21.29 2:36.4 4:1381 5:0.005710153 
-9 1:21.29 2:36.45 4:1381.5 5:0.005718069 
-9 1:21.2 2:36.29 4:1372 5:0.005661107 
-9 1:21.2 2:36.245 4:1355 5:0.005654023 
-9 1:21.2 2:36.2 4:1356 5:0.00564694 
-9 1:21.2 2:36.2 4:1341 5:0.00564694 
-9 1:21.2 2:36.2 4:1335.5 5:0.00564694 
-9 1:21.2 2:36.2 4:1320.5 5:0.00564694 
-9 1:21.2 2:36.2 4:1313 5:0.00564694 
-9 1:21.1 2:36.2 4:1298 5:0.005612064 
-9 1:21.1 2:36.2 4:1303 5:0.005612064 
-9 1:21.1 2:36.2 4:1295 5:0.005612064 
-9 1:21.1 2:36.145 4:1287 5:0.00560346 
-9 1:21 2:36.09 4:1280 5:0.005560279 
-9 1:21.05 2:36.145 4:1275.5 5:0.00558612 
-9 1:21 2:36.09 4:1268 5:0.005560279 
-9 1:21 2:36.145 4:1267.5 5:0.005568828 
-9 1:21 2:36.09 4:1267 5:0.005560279 
-9 1:21 2:36.126667 4:1267.6667 5:0.005565978 
-9 1:21 2:36.09 4:1265 5:0.005560279 
-9 1:21 2:36.09 4:1256 5:0.005560279 
-9 1:21 2:36.09 4:1250 5:0.005560279 
-9 1:20.945 2:36.09 4:1249.5 5:0.005541341 
-9 1:20.89 2:36.09 4:1243 5:0.005522461 
-9 1:20.89 2:36.045 4:1237 5:0.005515514 
-9 1:20.89 2:36 4:1227 5:0.005508567 
-9 1:20.945 2:36 4:1206.5 5:0.0055274 
-9 1:20.89 2:36 4:1211.6667 5:0.005508567 
-9 1:20.89 2:36 4:1204 5:0.005508567 
-9 1:20.89 2:35.95 4:1204 5:0.005500849 
-9 1:20.89 2:35.9 4:1200 5:0.005493131 
-9 1:20.89 2:35.9 4:1194 5:0.005493131 
-9 1:20.823333 2:35.826667 4:1182.6667 5:0.005459171 
-9 1:20.79 2:35.79 4:1169 5:0.005442258 
-9 1:20.79 2:35.79 4:1161 5:0.005442258 
-9 1:20.79 2:35.79 4:1158 5:0.005442258 
-9 1:20.79 2:35.7 4:1165 5:0.005428453 
-9 1:20.79 2:35.7 4:1152.5 5:0.005428453 
-9 1:20.79 2:35.73 4:1145.6667 5:0.005433055 
-9 1:20.7 2:35.7 4:1136.5 5:0.005398186 
-9 1:20.7 2:35.7 4:1136 5:0.005398186 
-9 1:20.7 2:35.7 4:1131 5:0.005398186 
-9 1:20.7 2:35.7 4:1133.5 5:0.005398186 
-9 1:20.7 2:35.7 4:1134 5:0.005398186 
-9 1:20.7 2:35.59 4:1120 5:0.005381409 
-9 1:20.7 2:35.59 4:1116 5:0.005381409 
-9 1:20.7 2:35.59 4:1098 5:0.005381409 
-9 1:20.7 2:35.59 4:1101.5 5:0.005381409 
-9 1:20.7 2:35.59 4:1108 5:0.005381409 
-9 1:20.7 2:35.5 4:1099 5:0.005367683 
-9 1:20.7 2:35.4 4:1082 5:0.005352433 
-9 1:20.7 2:35.5 4:1081 5:0.005367683 
-9 1:20.7675 2:35.4 4:1078.25 5:0.005374925 
-9 1:20.73 2:35.4 4:1065.6667 5:0.005362419 
-9 1:20.7 2:35.345 4:1060 5:0.005344045 
-9 1:20.7 2:35.29 4:1060.5 5:0.005335658 
-9 1:20.7 2:35.29 4:1060 5:0.005335658 
-9 1:20.7 2:35.29 4:1059 5:0.005335658 
-9 1:20.7 2:35.29 4:1054 5:0.005335658 
-9 1:20.7 2:35.29 4:1044 5:0.005335658 
-9 1:20.7 2:35.29 4:1048 5:0.005335658 
-9 1:20.666667 2:35.26 4:1039.6667 5:0.005320051 
-9 1:20.7 2:35.29 4:1029 5:0.005335658 
-9 1:20.7 2:35.29 4:1031.5 5:0.005335658 
-9 1:20.7 2:35.29 4:1020 5:0.005335658 
-9 1:20.666667 2:35.26 4:1019.3333 5:0.005320051 
-9 1:20.633333 2:35.23 4:1018 5:0.005304484 
-9 1:20.633333 2:35.23 4:1015.6667 5:0.005304484 
-9 1:20.6 2:35.2 4:1008 5:0.005288956 
-9 1:20.6 2:35.145 4:1004 5:0.005280622 
-9 1:20.6 2:35.145 4:999 5:0.005280622 
-9 1:20.6 2:35.09 4:1001 5:0.005272288 
-9 1:20.6 2:35.09 4:1000 5:0.005272288 
-9 1:20.6 2:35.09 4:1001 5:0.005272288 
-9 1:20.6 2:35.09 4:985.5 5:0.005272288 
-9 1:20.6 2:35.09 4:977 5:0.005272288 
-9 1:20.6 2:35.09 4:974.5 5:0.005272288 
-9 1:20.5 2:35 4:972 5:0.005226043 
-9 1:20.6 2:35 4:964 5:0.005258651 
-9 1:20.6 2:35 4:970.5 5:0.005258651 
-9 1:20.566667 2:35 4:964.66667 5:0.005247761 
-9 1:20.55 2:35 4:956 5:0.005242324 
-9 1:20.55 2:35 4:947.5 5:0.005242324 
-9 1:20.5 2:34.95 4:943.5 5:0.005218514 
-9 1:20.5 2:34.9 4:947 5:0.005210986 
-9 1:20.5 2:34.9 4:921.5 5:0.005210986 
-9 1:20.5 2:34.9 4:928 5:0.005210986 
-9 1:20.5 2:34.9 4:926.5 5:0.005210986 
-9 1:20.5 2:34.863333 4:921.33333 5:0.005205465 
-9 1:20.5 2:34.79 4:917 5:0.005194424 
-9 1:20.5 2:34.9 4:916 5:0.005210986 
-9 1:20.5 2:34.79 4:911 5:0.005194424 
-9 1:20.5 2:34.79 4:912.5 5:0.005194424 
-9 1:20.5 2:34.79 4:902 5:0.005194424 
-9 1:20.5 2:34.79 4:893 5:0.005194424 
-9 1:20.5 2:34.79 4:886 5:0.005194424 
-9 1:20.5 2:34.745 4:890.5 5:0.00518765 
-9 1:20.525 2:34.7 4:891.25 5:0.005188939 
-9 1:20.5 2:34.59 4:882 5:0.005164315 
-9 1:20.5 2:34.59 4:874.5 5:0.005164315 
-9 1:20.5 2:34.59 4:872.5 5:0.005164315 
-9 1:20.5 2:34.59 4:869 5:0.005164315 
-9 1:20.5 2:34.59 4:868.5 5:0.005164315 
-9 1:20.5 2:34.545 4:869.5 5:0.005157541 
-9 1:20.5 2:34.5 4:865 5:0.005150767 
-9 1:20.5 2:34.5 4:856.5 5:0.005150767 
-9 1:20.5 2:34.5 4:853 5:0.005150767 
-9 1:20.5 2:33.29 4:1365 5:0.004968673 
-9 1:20.5 2:33.29 4:894 5:0.004968673 
-9 1:20.5 2:33.29 4:1101.3333 5:0.004968673 
-9 1:20.5 2:33.29 4:1165 5:0.004968673 
-9 1:20.315 2:33.2 3:232 4:460 5:0.004898406 
-9 1:20.315 2:33.345 3:426 4:474.25 5:0.004919969 
-9 1:20.356667 2:33.4 3:419 4:482.33333 5:0.004940953 
-9 1:22.6 2:25.066667 3:428.33333 4:849.33333 5:0.00424961 
-9 1:22.6 2:25.2 3:422.5 4:853 5:0.00427237 
-9 1:22.6 2:25.2 3:423.66667 4:853 5:0.00427237 
-9 1:22.54 2:25.16 3:424.6 4:852 5:0.004249921 
-9 1:22.54 2:25.16 3:427.4 4:853.6 5:0.004249921 
-9 1:22.54 2:25.14 3:421.8 4:845.6 5:0.00424652 
-9 1:22.525 2:25.1 3:426 4:834.25 5:0.004235829 
-9 1:22.5 2:25.04 3:421.8 4:826.4 5:0.004219178 
-9 1:22.5 2:25 3:419 4:819.6 5:0.004212392 
-9 1:22.5 2:25 3:419 4:829.6 5:0.004212392 
-9 1:22.5 2:25 3:419 4:824 5:0.004212392 
-9 1:22.5 2:24.912 3:419 4:814.2 5:0.004197464 
-9 1:22.5 2:24.89 3:419 4:813.5 5:0.004193733 
-9 1:22.5 2:24.89 3:419 4:813.8 5:0.004193733 
-9 1:22.5 2:24.89 3:419 4:811 5:0.004193733 
-9 1:22.478 2:24.87 3:419 4:804.6 5:0.004184704 
-9 1:22.456 2:24.83 3:419 4:807.8 5:0.004172308 
-9 1:22.5 2:24.856667 3:419 4:802.33333 5:0.004188079 
-9 1:22.4175 2:24.7475 3:419 4:796.75 5:0.004148566 
-9 1:22.456 2:24.81 3:419 4:794.4 5:0.004168925 
-9 1:22.39 2:24.7 3:419 4:790.6 5:0.004133586 
-9 1:22.4175 2:24.7225 3:419 4:789.75 5:0.004144348 
-9 1:22.39 2:24.7 3:419 4:782.2 5:0.004133586 
-9 1:20.29 2:23 3:419 4:453 5:0.003380029 
-9 1:20.315 2:23.1 3:419 4:459.25 5:0.003400083 
-9 1:20.29 2:23.2 3:419 4:470.4 5:0.003409582 
-9 1:20.31 2:23.2 3:416.2 4:466 5:0.003413822 
-9 1:21.133333 2:24.823333 3:444 4:747.33333 5:0.003845377 
-9 1:21.166667 2:24.858333 3:444 4:745.5 5:0.00385877 
-9 1:22.2 2:27.642857 3:535.71429 4:1137.8571 5:0.004576126 
-9 1:22.39 2:27.29 3:603.6 4:1064 5:0.004570212 
-9 1:22.39 2:27.2675 3:587.5 4:1065.25 5:0.004566416 
-9 1:22.39 2:27.2 3:575 4:1050.5 5:0.00455503 
-9 1:23.26 2:25.856667 3:338.33333 4:997.33333 5:0.004564605 
-9 1:23.29 2:25.978333 3:197.16667 4:996.5 5:0.004594621 
-9 1:23.272 2:25.87 3:184 4:998.6 5:0.004570312 
-9 1:23.29 2:25.89 3:173.2 4:993.4 5:0.004578883 
-9 1:23.2675 2:25.865 3:193 4:994.25 5:0.004568171 
-9 1:23.29 2:25.89 3:193 4:990.16667 5:0.004578883 
-9 1:23.245 2:25.825 3:178 4:984 5:0.004554814 
-9 1:23.254 2:25.85 3:184 4:983.6 5:0.004561753 
-9 1:23.26 2:25.793333 3:186 4:983.33333 5:0.004553342 
-9 1:23.272 2:25.772 3:178 4:974.6 5:0.004552872 
-9 1:23.245 2:25.715 3:178 4:961 5:0.004535271 
-9 1:23.29 2:25.7225 3:173.5 4:954.25 5:0.004549043 
-9 1:23.245 2:25.7 3:174.5 4:951.5 5:0.004532606 
-9 1:23.215 2:25.683333 3:169.66667 4:952.5 5:0.004521382 
-9 1:23.215 2:25.683333 3:168.5 4:946.33333 5:0.004521382 
-9 1:23.2 2:25.6 3:171 4:942 5:0.004502493 
-9 1:23.2 2:25.6 3:176 4:933.2 5:0.004502493 
-9 1:23.2 2:25.58 3:176 4:928.8 5:0.00449895 
-9 1:23.2 2:25.55 3:177.25 4:924 5:0.004493635 
-9 1:23.2 2:25.55 3:171 4:918 5:0.004493635 
-9 1:23.2 2:25.5 3:171 4:912.75 5:0.004484778 
-9 1:23.2 2:25.5 3:171 4:907 5:0.004484778 
-9 1:23.185714 2:25.528571 3:268.71429 4:899.28571 5:0.004485936 
-9 1:23.2 2:25.792 3:627.6 4:919.8 5:0.004536508 
-9 1:23.2 2:25.65 3:638 4:938.25 5:0.00451135 
-9 1:23.2 2:25.533333 3:634 4:922.16667 5:0.004490683 
-9 1:23.2 2:25.5 3:629 4:899 5:0.004484778 
-9 1:23.2 2:25.516667 3:557.66667 4:895.33333 5:0.00448773 
-9 1:22.6 2:30.1225 4:1205.25 5:0.005113784 
-9 1:22.575 2:30.05 4:1204.75 5:0.005093574 
-9 1:22.5 2:30.1 4:1196.6667 5:0.005078737 
-9 1:22.5 2:30.1 4:1191.5 5:0.005078737 
-9 1:22.5 2:30.1 4:1184 5:0.005078737 
-9 1:22.445 2:30.1 4:1189.25 5:0.00506165 
-9 1:22.39 2:30.075 4:1186.5 5:0.005040391 
-9 1:22.39 2:30.1 4:1180.75 5:0.005044615 
-9 1:22.39 2:30.05 4:1172.5 5:0.005036167 
-9 1:22.365 2:30.075 4:1164 5:0.005032671 
-9 1:22.356667 2:30.1 4:1160.6667 5:0.005034315 
-9 1:22.29 2:30 4:1143.25 5:0.00499698 
-9 1:22.2675 2:29.945 4:1139.5 5:0.004980865 
-9 1:22.245 2:29.9725 4:1138.25 5:0.004978597 
-9 1:22.2 2:29.815 4:1135.5 5:0.004938568 
-9 1:22.2 2:29.84 4:1124.75 5:0.004942742 
-9 1:22.2 2:29.856667 4:1119.3333 5:0.004945524 
-9 1:22.125 2:29.79 4:1110.25 5:0.004911722 
-9 1:22.1 2:29.79 4:1105.5 5:0.004904185 
-9 1:22.1 2:29.745 4:1096.75 5:0.004896719 
-9 1:22.1 2:29.7 4:1092.25 5:0.004889252 
-9 1:22.1 2:29.6 4:1092.5 5:0.004872661 
-9 1:22.025 2:29.525 4:1085.75 5:0.004837873 
-9 1:22 2:29.463333 4:1074.3333 5:0.004820277 
-9 1:22 2:29.39 4:1066 5:0.004808187 
-9 1:22 2:29.39 4:1058.5 5:0.004808187 
-9 1:21.9175 2:29.29 4:1050.75 5:0.004767456 
-9 1:21.89 2:29.2675 4:1044 5:0.004755715 
-9 1:21.963333 2:29.2 4:1039 5:0.004766109 
-9 1:21.89 2:29.2 4:1030.5 5:0.004744663 
-9 1:21.89 2:29.2 4:1030.8 5:0.004744663 
-9 1:21.89 2:29.2 4:1032.3333 5:0.004744663 
-9 1:21.89 2:29.16 4:1021.2 5:0.004738114 
-9 1:21.89 2:29.2 4:1018.6667 5:0.004744663 
-9 1:21.89 2:29.2 4:1008.75 5:0.004744663 
-9 1:21.79 2:29 4:1003.25 5:0.004683014 
-9 1:21.81 2:29 4:989.8 5:0.004688783 
-9 1:21.815 2:29 4:992 5:0.004690226 
-9 1:21.79 2:28.9725 4:985.75 5:0.00467854 
-9 1:21.79 2:28.89 4:989 5:0.004665118 
-9 1:21.7225 2:28.89 4:983 5:0.00464577 
-9 1:21.7 2:28.89 4:976.75 5:0.004639337 
-9 1:21.7 2:28.89 4:970.33333 5:0.004639337 
-9 1:21.7 2:28.865 4:961.75 5:0.004635292 
-9 1:21.7 2:28.865 4:958.75 5:0.004635292 
-9 1:21.7 2:28.89 4:954.66667 5:0.004639337 
-9 1:21.7 2:28.79 4:950.5 5:0.004623159 
-9 1:21.7 2:28.815 4:942.75 5:0.004627203 
-9 1:21.675 2:28.79 4:938.25 5:0.004616045 
-9 1:21.675 2:28.7675 4:941 5:0.00461241 
-9 1:21.633333 2:28.73 4:944.33333 5:0.004594543 
-9 1:21.6 2:28.65 4:938 5:0.004572253 
-9 1:21.6 2:28.675 4:934.5 5:0.004576272 
-9 1:21.6 2:28.633333 4:936.66667 5:0.004569574 
-9 1:21.6 2:28.6 4:926 5:0.004564215 
-9 1:21.6 2:28.6 4:920.75 5:0.004564215 
-9 1:21.6 2:28.56 4:920.2 5:0.004557785 
-9 1:21.6 2:28.5 4:911.33333 5:0.00454814 
-9 1:21.6 2:28.5 4:905.33333 5:0.00454814 
-9 1:21.6 2:28.5 4:904.2 5:0.00454814 
-9 1:21.6 2:28.5 4:899.66667 5:0.00454814 
-9 1:21.6 2:28.478 4:898.2 5:0.004544603 
-9 1:21.6 2:28.4725 4:898.25 5:0.004543719 
-9 1:21.6 2:28.39 4:895 5:0.004530458 
-9 1:21.6 2:28.39 4:891.66667 5:0.004530458 
-9 1:21.58 2:28.35 4:887.4 5:0.004518455 
-9 1:21.6 2:28.29 4:885.33333 5:0.004514384 
-9 1:21.56 2:28.29 4:876.4 5:0.004503267 
-9 1:21.533333 2:28.29 4:871.33333 5:0.00449587 
-9 1:21.5 2:28.29 4:863.5 5:0.004486638 
-9 1:21.5 2:28.2675 4:865.25 5:0.004483043 
-9 1:21.5 2:28.23 4:859.66667 5:0.004477053 
-9 1:21.5 2:28.26 4:858.66667 5:0.004481845 
-9 1:21.5 2:28.2 4:852.25 5:0.004472261 
-9 1:21.5 2:28.175 4:849.25 5:0.004468268 
-9 1:21.5 2:28.1 4:849 5:0.004456289 
-9 1:21.5 2:28.1 4:845 5:0.004456289 
-9 1:21.5 2:28.1 4:844.5 5:0.004456289 
-9 1:20.6 2:24.083333 3:413 4:507.33333 5:0.003608936 
-9 1:20.6 2:24.1 3:414.6 4:514.6 5:0.003611448 
-9 1:20.6 2:24.175 3:407.5 4:522.25 5:0.003622752 
-9 1:20.6 2:24.2 3:406.6 4:525.6 5:0.003626521 
-9 1:20.6 2:24.2 3:399.5 4:528 5:0.003626521 
-9 1:20.956 2:25.39 3:444 4:717.8 5:0.003890816 
-9 1:21 2:25.39 3:444 4:720.75 5:0.003901421 
-9 1:21 2:25.412 3:444 4:721.4 5:0.003904823 
-9 1:21 2:25.39 3:444 4:718 5:0.003901421 
-9 1:21 2:25.356667 3:444 4:715.5 5:0.003896267 
-9 1:21 2:25.29 3:447.2 4:713 5:0.003885959 
-9 1:21 2:25.29 3:456.8 4:714.8 5:0.003885959 
-9 1:21.215 2:25.291667 3:462.33333 4:773.83333 5:0.003938201 
-9 1:21.2 2:25.29 3:464 4:777.75 5:0.003934293 
-9 1:22.2 2:26 3:608.25 4:946 5:0.004302279 
-9 1:22.29 2:25.963333 3:606.66667 4:950.33333 5:0.004319939 
